GIS
1
0.0
8
O
I-ORG
I-MISC
I-PER
I-LOC
B-LOC
B-MISC
B-ORG
66
48880 0
1427 0 1
246 0 1 2
46 0 1 2 3
228 0 1 2 3 4
9 0 1 2 3 4 5
3 0 1 2 3 4 5 6
10 0 1 2 3 4 5 6 7
24 0 1 2 3 4 6
2 0 1 2 3 4 7
1 0 1 2 3 6
135 0 1 2 4
1 0 1 2 4 5
5 0 1 2 4 6
7 0 1 2 6
212 0 1 3
78 0 1 3 4
2 0 1 3 4 6
1 0 1 3 6
183 0 1 4
1 0 1 4 5
1 0 1 5
3 0 1 6
2 0 1 7
1066 0 2
60 0 2 3
26 0 2 3 4
2 0 2 3 6
164 0 2 4
2 0 2 4 6
18 0 2 6
1489 0 3
77 0 3 4
594 0 4
1 0 4 5
1 0 4 6
7 0 5
8 0 6
2 0 7
3618 1
129 1 2
7 1 2 3
3 1 2 3 4
1 1 2 3 4 6
48 1 2 4
3 1 2 4 6
2 1 2 6
118 1 3
40 1 3 4
273 1 4
1 1 4 5
1 1 6
1 1 7
1266 2
42 2 3
4 2 3 4
2 2 3 6
40 2 4
10 2 6
7214 3
77 3 4
1662 4
1 4 5
13 5
12 6
8 7
69620
spilling
salary
prevWord=Inia
prevWord=quarter-final
prevWord=Abuja
prevWord=120,000
14-man
blasts
"
$
prevWord=safety
%
quartets
*
prevWord=Butare
+
-
nextWord=26.70
0
prevWord=GATTING
4
5
6
7
prevWord=dismantle
8
9
nextWord=51.50
;
resurgent
=
?
nextWord=Zurich
@
Chancellor
B
C
prevWord=Raphanel
D
E
G
I
K
prevWord=cruise
prevWord=STANDINGS
M
nextWord=signs
nextWord=politically
T
nextWord=lounge
W
X
Y
[
]
prevWord=policies
a
b
c
nextWord=plants
nextWord=26.93
eating
m
o
s
gunshots
v
nextWord=Andhra
prevWord=38:32.719
x
y
information
AFFORD
nextWord=51.00
prevWord=Noranda
34th
nextWord=Martina
nextWord=dividends
nextWord=roadblocks
prevWord=hailing
nextWord=Brisbane
prevWord=brain
prevWord=15:07.85
pillaged
prevWord=Valletta
prevWord=trashed
nextWord=25,860
prevWord=Declaring
prevWord=PAKISTAN
nextWord=twenty-second
prevWord=Dohuk
Secretary-General
nextWord=loans
nextWord=29th-ranked
nextWord=99.32
prevWord=child-sex
nextWord=immunity
nextWord=Montreal
prevWord=edged
prevWord=Boshova
welter
nextWord=wrangle
adrift
motive
nextWord=equality
shrinks
nextWord=pence
prevWord=Salisbury
nextWord=Gloria
prevWord=combines
mid-twenties
prevWord=15:07.57
nextWord=Bekescsaba
quarters
nextWord=equalise
congressmen
better
sightseers
prevWord=combined
10-1-50-1
allegations
prevWord=denounce
prevWord=AVIA
breadth
nextWord=sight
nextWord=26.00
prevWord=approx
prevWord=architect
discharged
flow
chilli
prevWord=Inc.
nextWord=connection
prevWord=7-3/8
nextWord=ready
prevWord=argue
prevWord=possess
nextWord=overbought
prevWord=brake
nextWord=7546
nextWord=seal
MBIA
prevWord=0.25-1.30
prevWord=terry
shoot-out
prevWord=fatally
nextWord=decade
prevWord=habits
nextWord=pattern
nextWord=26.29
71-57
104.625
nextWord=Sud-PTT
nextWord=99.90
nextWord=tabular
nextWord=react
prevWord=undertaken
nextWord=99.95
nextWord=projects
prevWord=virus
29,582
nextWord=phenomenon
nextWord=specialist
prevWord=one-day
nextWord=uncertainty
automation
prevWord=NovDec
nextWord=relevent
Plus
prevWord=Fulton
medium-term
nextWord=closely
longitude
circumstances
prevWord=warehouses
prevWord=strongly
nextWord=reais
prevWord=extorted
prevWord=Sandstod
nextWord=6-7(3-7
prevWord=Knight
became
nextWord=seem
nextWord=seen
nextWord=seek
nextWord=away-goal
nextWord=seed
times
muscle
nextWord=alcoholics
prevWord=Crafar
prevWord=entitled
prevWord=manipulation
prevWord=Lihir
prevWord=0.25-1.00
prevWord=immigration
prevWord=trillion
prevWord=brand
nextWord=roared
Snoozing
prevWord=pro-rated
prevWord=deadlock
nextWord=Barentsburg
prevWord=REPRICING
nextWord=secs
sketch
nextWord=drought
prevWord=Faust
prevWord=Chechens
beautiful
eventual
1:05.406
notation
prevWord=hiring
prevWord=Quepos
1997/98
nextWord=growing
nextWord=pistol
prevWord=emphasis
nextWord=greetings
prevWord=Bidzos
prevWord=Tabarez
prevWord=Foindu
prevWord=designated
nextWord=chaos
Gross
nextWord=knowledge
prevWord=burden
monitors
nextWord=+3.06
4-334
nextWord=offences
prevWord=hyper-inflationary
prevented
prevWord=sales
prevWord=cutback
prevWord=suffers
prevWord=includind
prevWord=Medicare
prevWord=milligrams
nextWord=trauma
prevWord=Faure
prevWord=deterrence
prevWord=fugitive
prevWord=dancer
margins
carburettor
prevWord=tracking
prevWord=recovering
nextWord=Heinz-Harald
nextWord=apologies
prevWord=Babbel
prevWord=luck
nextWord=Gerd
prevWord=applets
budget
nextWord=phones
glass
rapists
prevWord=pleaded
prevWord=curtail
nextWord=vitriol
technologies
nextWord=Steady
nextWord=belonged
riyal
prevWord=Revolution
low-level
memory
nextWord=164-4
disaster
nextWord=medals
prevWord=fundamental
prevWord=predicted
prevWord=Hoffman
nextWord=chase
attends
prevWord=devices
prevWord=detention
nextWord=Montserratians
prevWord=terms
nextWord=133.82
nextWord=tempest
nextWord=chart
nextWord=sell
earliest
20.036
nextWord=underpriviledged
prevWord=repair
Sisters
nextWord=disguise
1:52.977
prevWord=aimed
nextWord=ambulance
nextWord=wrap
prevWord=viral
nextWord=188,143
nextWord=Carl-Uwe
prevWord=Glamorgan
preliminaries
telethon
prevWord=UNDER
specifically
vomiting
nextWord=18-year-old
prevWord=norms
54,178
prevWord=safely
prevWord=seizing
37.2
prevWord=censorship
37.4
prevWord=impressive
37.5
eyebrows
nextWord=drizzle
pro-life
37.0
prevWord=Bastia
bright
prevWord=50th
prevWord=qualifies
prevWord=Graf-like
assure
emergent
nextWord=hookers
prevWord=Lanusse
nextWord=50,400
prevWord=2:01.98
prevWord=Premiership
nextWord=planks
prevWord=three-hour
nextWord=unionized
nextWord=entered
nextWord=post-tax
nextWord=Gert
nextWord=platinum
nextWord=machines
prevWord=aboard
prevWord=qualified
prevWord=roaring
prevWord=gateway
prevWord=Matuzici
prevWord=week-old
nextWord=Ended
prevWord=production
prevWord=28-36C
prevWord=direction
bunkering
prevWord=stored
prevWord=Indeed
prevWord=irritation
nextWord=bovine
nextWord=shacks
nextWord=fingers
prevWord=Glickman
nextWord=nominations
prevWord=stores
prevWord=prohibits
nextWord=gutted
nextWord=UNAM
nextWord=7,391
prevWord=battlefields
undressing
prevWord=acknowledged
nextWord=Keiron
STRAIGHT
hardcourts
DIES
prevWord=precautions
introduction
nextWord=Tanzania
prevWord=Haifa
prevWord=AWAY
prevWord=impression
prevWord=useless
revenge
prevWord=Gaseous
prevWord=Nagyatad
overtook
nextWord=OWENS
prevWord=7-283
prevWord=Winner
demands
tiebreak
nextWord=oppreses
nextWord=smuggled
Towards
prevWord=Ride
prevWord=Haiti
nextWord=Comprehensive
prevWord=altered
prevWord=Rico
prevWord=entertain
prevWord=contributed
nextWord=trouble-free
prevWord=lung
prevWord=Ried
carefully
prevWord=partnered
nextWord=26-57
prevWord=Riel
buyer
125.3
nextWord=cannon
prevWord=7-263
nextWord=disposals
FULFILS
prevWord=seven-year-old
prevWord=spontaneously
average
198354.941
choosing
35th
nextWord=Apparently
journal
nextWord=Maryborough
prevWord=hide
nextWord=priced
prevWord=half-time
prevWord=o'clock
business
prevWord=Riga
prevWord=fruit-throwing
prevWord=uphill
prevWord=motivated
nextWord=self-confessed
prevWord=Telekom
prevWord=recording
unseeded
prevWord=5-0-24-0
prevWord=progressive
prevWord=Jerusalem
Heavy
prevWord=Weston
nextWord=Polster
retrieved
nextWord=warm-up
nextWord=26-29
reconvene
chartered
prevWord=FEES
journey
nextWord=Steaua
prevWord=storms
nextWord=prices
prevWord=7-220
prevWord=inactivity
nextWord=Sumitomo
prevWord=high
prevWord=rated
nextWord=companions
pumped
Volatility
Corporate
back
nextWord=Colchester
prevWord=blunder
two-goal
prevWord=rates
prevWord=Kernaghan
billions
nextWord=74-0
nextWord=umpires
relay
checkpoints
prevWord=Rikl
nextWord=BAILEY
baby
prevWord=51st
showing
prevWord=mothers
nextWord=dictatorial
nextWord=technically
attempt
nextWord=Sloboda
nextWord=favourite
prevWord=Medicaid
nextWord=summary
'd
prevWord=Agdam
nextWord=jumpstart
'm
prevWord=Batterby
filmed
yielded
prevWord=Shabazov
prevWord=unhurt
hoping
prevWord=Jardel
curse
**
prevWord=tests
nextWord=Creutzfeldt-Jakob
bags
curve
nextWord=clown
95.35
nextWord=professor
prevWord=CARACAS
prevWord=divisions
brewery
nextWord=Hungarian
defoliant
prevWord=23-year-old
prevWord=progressing
prevWord=deadpan
+1
+2
nextWord=extraction
+3
+4
+5
+6
+7
+8
+9
cultivation
nextWord=Miriam
nextWord=72nd
71.70
nextWord=genetic
nextWord=underlying
prevWord=Kandarr
dulls
insincere
inspections
networking
nextWord=ministries
nextWord=14.956
revenue
nextWord=747s
--
prevWord=noted
prevWord=headbutting
nextWord=porous
baht
prevWord=Jeddah
prevWord=intestines
prevWord=fielding
..
Secretary-
prevWord=53-0
nextWord=experimental
ball
prevWord=notes
prevWord=2.240
prevWord=Gebreselassie
threats
prevWord=chains
hostilities
prevWord=Rica
nextWord=Beijing-backed
prevWord=Rich
prevWord=Rice
prevWord=53.9
nextWord=gunbattles
prevWord=422.1
freeing
nextWord=surpasses
prevWord=often
nextWord=Yasushi
0*
0.
06
nextWord=Peterborough
prevWord=172.7
prevWord=settlement
prevWord=channels
prevWord=m.p.h.
trees
prevWord=indictment
bang
nextWord=elbow
prevWord=whistle-stop
band
1.
prevWord=Mavituna
10
12
13
14
15
nextWord=al-Ingaz
17
prevWord=Hussain
18
19
hijacking
nextWord=sprinter
allied
prevWord=Wessels
prevWord=one-half
vastly
22.42
nextWord=unease
nextWord=conferences
regained
nextWord=108.40
2.
allies
20
nextWord=108.43
nextWord=Seeliger
21
22
prevWord=1.875
23
24
25
prevWord=patrols
26
27
28
29
nextWord=rings
prevWord=FULL-YR
prevWord=Helens
prevWord=325-350
Jan-May
prevWord=2.209
nextWord=Zadar
prevWord=Otherwise
3.
30
32
Reviewed
33
34
35
36
star
37
38
39
1w
nextWord=flagrant
prevWord=reinforced
bans
20.112
prevWord=hive
stay
prevWord=mid-season
nextWord=corporations
nextWord=blues
stab
prevWord=paramilitary
nextWord=videos
progress
prevWord=Hezb-i-Islami
4-
4.
prevWord=importers
40
41
42
2p
43
seeks
44
45
46
treat
47
48
49
2w
prevWord=installations
numbers
71.00
prevWord=sticking
nominate
Last
nextWord=restitution
5-
5.
50
51
52
53
54
55
56
57
tractors
58
59
nextWord=818.10
3w
seeds
prevWord=prevailed
prevWord=traditionally
seeed
nextWord=clock
22.00
6-
6.
60
61
62
63
64
65
66
67
68
nextWord=+31,230
69
nextWord=emotional
prevWord=GROWTH
prevWord=QUENCH
prevWord=brawl
auction
prevWord=Ecus
7-
prevWord=Rishon
7.
uneven
70
71
72
73
74
75
77
78
nextWord=millfeeds
79
Late
prevWord=brave
bars
38.1
38.4
2,284.86
38.5
8-
8.
80
81
step
82
83
nextWord=proprietary
9,446
84
85
86
prevWord=Planted
base
38.0
87
stem
88
prevWord=al-Watani
trend
nextWord=opportunities
nextWord=breakfast
9.
90
91
prevWord=rifles
92
93
94
32.0-43.0
prevWord=Ransart
97
98
nextWord=Charmaine
99
nextWord=Alicia
prevWord=setback
playoff
nextWord=expense
8p
missionary
prevWord=Basuki
prevWord=Kafelnikov
BANNED
prevWord=nominal
forehead
nextWord=engagement
nextWord=Greek
northerners
across
22.94
nextWord=CHANG
22.95
prevWord=JYVASKLYA
nextWord=coached
nextWord=1,850-1,900
prevWord=Interacciones
prevWord=grandson
prevWord=outline
nextWord=PHILIPPINE
prevWord=bureau
Doctor
prevWord=Bryant
nextWord=diverse
prevWord=Rios
prevWord=23.0yr
prevWord=Jewellers
prevWord=splitting
Gunmen
nextWord=strengthened
nextWord=KOMBOUARE
escort
prevWord=Iowa
prevWord=wisdom
hospitals
prevWord=STOCKS
prevWord=limping
22.72
nextWord=accompany
22.73
22.77
nextWord=coaches
investement
visitors
22.84
nextWord=primary
22.85
nextWord=Agriculture
seems
prevWord=quarter-finals
prevWord=Vietnamese
profit-taking
prevWord=21,228.80
nextWord=developing
22.58
prevWord=pledge
prevWord=NUNTHORPE
prevWord=visas
22.53
prevWord=CAMPAIGN
prevWord=incomplete
nextWord=veiled
46.21
nextWord=Great
nextWord=Moldova
prevWord=11,424.64
prevWord=T-72
prevWord=Score
prevWord=stretch
46.16
22.68
22.66
nextWord=7,250
nextWord=superb
prevWord=Risi
46.11
prevWord=Patient
prevWord=Paulo-Santos
nextWord=Baret
temporary
prevWord=factories
nextWord=Derby
prevWord=matchup
A-
prevWord=Stabaek
prevWord=Malone
A0
36th
A1
prevWord=Perfetti
nextWord=S23.SEP.96
prevWord=prompted
prevWord=hovercrafts
low-margin
AA
B-
prevWord=cancellation
planning
AT
stop
prevWord=titles
prevWord=Londono
nextWord=cereals
Aa
nextWord=affidavit
nextWord=woes
prevWord=outcome
prevWord=Bernama
prevWord=Alatas
nextWord=kidnappers
As
At
prevWord=pleads
BY
nextWord=depend
nextWord=Aslan
hat-tricks
nextWord=elder
prevWord=recorded
nextWord=Tomasz
nextWord=skills
Bd
prevWord=Predrosa
prevWord=Falkir
prevWord=convincing
By
tearing
nextWord=pacts
126.0
nextWord=Dynamo
nextWord=73.8
prevWord=HELENS
DI
nextWord=laboratory
prevWord=X-ray
nextWord=SBF-120
nextWord=ignorance
complements
nextWord=98,000
nextWord=disappoint
fullback
nextWord=breakaway
Do
prevWord=AGF-IART
prevWord=HUBER
Dr
hijackers
nextWord=Hakkari
nextWord=UKCM
1:53.199
nextWord=Aaxis
37-10-78-6
loose
prevWord=global
DECLARED
prevWord=belted
nextWord=overwork
prevWord=geology
CUSIP
nextWord=Koha
prevWord=social
GB
benefitted
prevWord=5000
prevWord=Help-wanted
pageant
GM
H1
H2
prevWord=promptly
HE
tries
occupation
prevWord=Freezing
nextWord=wide-ranging
nextWord=embattled
HQ
investors
tried
nextWord=2-239
outbreak
He
IF
nextWord=secrets
prevWord=FARC
IN
IP
IS
IT
harassed
prevWord=ACCORD
IV
seventh
1=.6421
nextWord=sagging
prevWord=FARM
If
1:53.152
prevWord=Besiktas
prevWord=Revs
nextWord=developers
Is
nextWord=4,325-acre
0.042
It
JV
prevWord=Corsican
nextWord=Bury
prevWord=Ohrel
nextWord=methods
prevWord=weakness
KM
television
prevWord=MOTOR
prevWord=Soviet-style
KV
Activists
nextWord=wood
prevWord=Rewe
nextWord=customer
prevWord=housing
strongest
nextWord=masturbation
prevWord=seeing
M1
M2
prevWord=socialists
M4
prevWord=7-502
trial
prevWord=Nicaraguan
prevWord=41-5/16
nextWord=Arizona
Notice
prevWord=please
nextWord=71st
prevWord=bitter
nextWord=descendants
nextWord=OFFICE
prevWord=Appelmans
MS
MW
prevWord=NZPA
driving
NA
prevWord=assault
races
tribe
nextWord=scar
NO
supportive
6603377
nextWord=apostolic
nextWord=scam
prevWord=objected
nextWord=system
prevWord=wished
prevWord=strengthen
raced
prevWord=crashing
95/96
0.005
prevWord=1915.00
nextWord=Obligation
prevWord=Lankan
nextWord=Derek
prevWord=Bombarda
prevWord=ratings
nextWord=brutal
ON
100-30
prevWord=nervous
prevWord=grammes
nextWord=whole
nextWord=blizzard
prevWord=repatriate
nextWord=intravenous
Of
nextWord=handle
Oh
nextWord=7340
PM
prevWord=revisited
On
Q1
Q2
Op
Q3
prevWord=remaking
nextWord=15.687
prevWord=pacemaker
prevWord=matched
2.7775
nextWord=Resalat
prevWord=Shabana
nextWord=codenamed
prevWord=3-0-14-0
prevWord=refiner
prevWord=TABLE
remain
prevWord=Dakota
rents
prevWord=refined
RE
prevWord=feeder
parliamentarians
prevWord=resorts
nextWord=Tina
prevWord=Richter
9,500
nextWord=Spaniard
nextWord=mammals
nextWord=inquiry
prevWord=Games
nextWord=Solskjaer
nextWord=162-4
nextWord=assessed
prevWord=1,466.1
prevWord=soaring
trophy
SP
nextWord=grinding
SR
nextWord=background
nextWord=Chinese
newcomers
nextWord=Tutsi-run
such
showers
TO
So
featured
1,164.1
prevWord=announcing
prevWord=22.828
prevWord=forfeiting
features
nextWord=Barry
To
UP
nextWord=studying
nextWord=owing
nextWord=Melissa
nextWord=Guinness
39.0
39.2
nextWord=MainStay
nextWord=Commodity
embarrassing
39.7
sued
nextWord=interferon
nextWord=STAT:Exempt-ULT
Up
nextWord=Calif
VS
nextWord=deficits
nextWord=doctors
nextWord=Tutsis
prevWord=jumping
nextWord=word
prevWord=respectable
nextWord=Schering
nextWord=worn
prevWord=Bossi
supporting
38:30.140
WV
WW
effectively
nextWord=Ricardo
prevWord=microfilm
BBB-minus
We
massively
shortages
prevWord=Pusan
nextWord=14,278.9
prized
prevWord=5017
prevWord=Levingston
prevWord=a.m.
confirming
prevWord=Sergio
wildfire
YR
prevWord=Kapeta
77,719
nextWord=submission
comfortably
nextWord=bench-clearing
prevWord=omitted
comfortable
Yr
suit
nextWord=Vaclav
nextWord=PROFIT
prevWord=Filippini
prevWord=5040
alleys
nextWord=incomes
125CC
shareholders
prevWord=anti-Semitic
prevWord=negative
prevWord=penalities
nextWord=individual
Unified
prevWord=6,688,000
prevWord=SCOTTISH
Announcing
prevWord=continent
Reiterates
nextWord=forecasts
nextWord=locks
prevWord=union-England
looks
22/96
nextWord=CYPRIEN
foil
nextWord=Accountant
prevWord=Berisha
prevWord=stripping
nextWord=fundamentals
nextWord=7,149
prevWord=Fasth
effect
prevWord=rapid
nextWord=policed
prevWord=returning
37th
prevWord=Reiffel
prevWord=raped
nextWord=t-shirt
nextWord=7,138
prevWord=TABAK
prevWord=Defending
prevWord=a.s.
looms
prevWord=MARACAIBO
prevWord=WARWICKSHIRE
nextWord=Valero
prevWord=areas
prevWord=52.90
prevWord=smoothly
prevWord=Encyclopedia
prevWord=exceed
prevWord=observation
prevWord=getting
drafts
nextWord=Noticias
matters
prevWord=Hudson
nextWord=tendinitis
Poll
nextWord=possibility
nextWord=Fontaine
nextWord=invasion
nextWord=115,941
Storm
nextWord=nemesis
prevWord=sufficiently
nextWord=11th-ranked
nextWord=Torpedo
cross-border
prevWord=13,091,000
prevWord=mysterious
prevWord=52.75
prevWord=forbidden
sure
ad
supremacy
proceeding
an
dreaded
extend
finalist
nextWord=revulsion
as
STERLING
nextWord=fitted
29,434
compression
loyalist
be
takeover
prevWord=Botha
homocide
refiners
prevWord=Luxembourg
refinery
prevWord=206-386-4848
panes
prevWord=Grozny
by
prevWord=138.0-149.0
prevWord=interfering
panel
lakelands
prevWord=52.53
foot
ca
prevWord=Ducati
nextWord=Tanzanian
prevWord=commitment
prevWord=Netanyahu
nextWord=punching
cm
nextWord=Gary
nextWord=Basic
food
53,400
nextWord=Basie
prevWord=Mudaba
partner
nextWord=cheer
Father
14.3-4-45-1
nextWord=re-elected
prevWord=27.70
nextWord=becoming
language
sites
dn
nextWord=Gaza
attacks
nextWord=everything
prevWord=compartment
nextWord=Lonrho
70,848.86
en
SEEDS
127.3
nextWord=2-141
nextWord=longitude
nextWord=fact-finding
nextWord=save
prevWord=52.17
baseman
prevWord=Monaco
fo
nextWord=maiden
ft
prevWord=108.4**
prevWord=JONK
nextWord=CONDITION
nextWord=elect
nextWord=assemblies
nextWord=lengths
prevWord=healed
prevWord=quadrangular
recalled
go
Tangible
rhythm
prevWord=consolation
nextWord=Based
form
renew
he
nextWord=lengthy
prevWord=scandal
triggered
penultimate
prevWord=half-game
foul
prevWord=Poltava
four
nextWord=Southend
collaborators
if
prevWord=Guadalajara
violently
prevWord=excess
prevWord=Unemployment
prevWord=27.22
prevWord=Levitt
prevWord=27.25
it
lefthander
nextWord=Kolbenschmidt
prevWord=378,000
municipal-level
prevWord=bodyguards
prevWord=plastic
prevWord=strains
prevWord=dispensation
prevWord=UNDERLYING
nextWord=Steyr
prevWord=BRITAIN
prevWord=27.53
nextWord=hundred
nextWord=2-136
customary
nextWord=tides
kg
nextWord=Continental
km
nextWord=Turnhout
nextWord=MEXICAN
prevWord=machinegun
prevWord=27.40
nextWord=ironically
prevWord=coercion
prevWord=Athey
nextWord=YR-AGO
wooden
lb
nextWord=That
prevWord=demise
prevWord=Researchers
attache
prevWord=Congo
nextWord=64ths-inch
0.100
prevWord=Istafanus
nextWord=This
prevWord=bottle-throwing
nextWord=Basle
suggests
nextWord=intercity
me
nextWord=streets
nextWord=networked
prevWord=eastward
prevWord=retire
communication
nextWord=offended
mm
profited
prevWord=quieter
my
flowing
nextWord=F.B.I.
prevWord=switched
nextWord=chess
nextWord=chest
noble
prevWord=overstayed
student
prevWord=Santos
ideology
nextWord=AHOLD
prevWord=diocese
nextWord=2-1/2
nextWord=telecoms
prevWord=overstayer
prevWord=Equivalents
prevWord=Conde
nextWord=2-1/8
prevWord=Botafogo
prevWord=LUANDA
nextWord=petrol
or
ot
nextWord=Steve
nextWord=especially
nextWord=arbitrage
nextWord=They
nextWord=economically
30.AUG.96
sitting
infringement
prevWord=establishing
revulsion
nextWord=several
prevWord=lightly
check-up
choke
prevWord=AVAZ
prevWord=MARTINEZ
19999.777
prevWord=Ganic
nextWord=Theodore
lagging
prevWord=WINNIPEG
nextWord=baseline
nextWord=nominally
adopt
prevWord=long-term
prevWord=55,929.89
prevWord=health
nextWord=Kimiko
oppose
bridge
nextWord=speeding
prevWord=joking
nextWord=CLOSE
discovered
strengthening
prevWord=+4.2R
nextWord=Buenos
prevWord=entitling
poisoning
nextWord=unrest
prevWord=3-0-15-0
snags
prevWord=varied
so
nextWord=passerby
sq
maintains
calendar
st
decision
nextWord=lodge
mogul
prevWord=10-session
prevWord=864148
prevWord=Plzen
paedophile
prevWord=Rica-Nicaragua
nextWord=collapse
nextWord=clutched
Garlic
to
prevWord=life-threatening
prevWord=Neagle
Dollar
prevWord=straits
prevWord=Frazier
prevWord=closure
prevWord=firming
prevWord=enforce
prevWord=quietly
nextWord=Linford
compensating
nextWord=economists
nextWord=850,968
up
prevWord=LUSAKA
us
prevWord=25-YEAR
prevWord=nightly
0.056
prevWord=thirsty
3:03
nextWord=inventories
nextWord=Harrods
protesting
kilometres
prevWord=384.00
nextWord=clinical
vs
prevWord=multi-party
preview
nextWord=Thon
prevWord=Omari
snack
prevWord=6,828,000
nextWord=Thou
we
prevWord=unsecured
bookshop
RELAY
prevWord=informed
wo
prevWord=energetic
nextWord=tackling
pro-opposition
nextWord=Christina
prevWord=Jumbish-i-Milli
teach
prevWord=comedy
prevWord=Zighayer
prevWord=Botta
nextWord=Adelbert
prevWord=standards
compensation
nextWord=unsympathetic
footnotes
nextWord=Remarkably
3:22
prevWord=Omaha
prevWord=elements
nextWord=passangers
prevWord=demonstrators
Income
Internal
nextWord=post-mortem
prevWord=lighten
prevWord=January-May
troops
prevWord=Analysts
prevWord=Pedersen
yr
Noting
teams
inconclusive
nextWord=superstores
bonded
misfortune
churches
prevWord=Each
prevWord=pruned
nextWord=communes
nextWord=northwestern
nextWord=Mahmoud
prevWord=JOSE
prevWord=Acucar
prevWord=freestyle
medicinal
Unconfirmed
resembling
125cc
roadsides
suspect
prevWord=WIMBLEDON
prevWord=Kishinev
38th
nextWord=purchases
prevWord=iscovered
defectors
impetus
PHILIPPINES
prevWord=Rhodes
pavilion
prevWord=catchers
CORRECTED
prevWord=day-night
prevWord=335.00
nextWord=purchased
prevWord=RACING
prevWord=Chiapas
fiscally-tight
prevWord=Rottweiler
prevWord=CHRISTIE
appoints
nextWord=littered
prevWord=JOUR
nextWord=thinking
nextWord=7,032
19.125
nextWord=Mont-sur-Marchienne
prevWord=batteries
nextWord=check
nextWord=Ryszard
prevWord=questioning
nextWord=climatologist
prevWord=658/96
prevWord=killers
nextWord=shadow
nextWord=connected
prevWord=however
prevWord=shelves
disappointing
prevWord=TRUTH
sawn-off
prevWord=Conte
prevWord=10,300
prevWord=gradual
1:05.735
nextWord=7,011
emphasise
nextWord=cheap
1:05.731
9,600
prevWord=rejoined
prevWord=Rogachev
nextWord=sick
prevWord=served
nextWord=Portugal
prevWord=firebreathing
nextWord=required
prevWord=Vurens
nextWord=join
prevWord=Fournier
nextWord=7,000
prevWord=Hadji
49-year-old
14:49.81
prevWord=deducted
nextWord=specifically
nextWord=Hirsch
prevWord=bigger
nextWord=requires
prevWord=Montana
nextWord=795M
nextWord=communicate
prevWord=tents
nextWord=7944
nextWord=Daryll
nextWord=assistant
complete-game
anybody
nextWord=Wayne
prevWord=unconfirmed
prevWord=tense
0.200
prevWord=guide
prevWord=Honved
nextWord=legislations
Weighted
prevWord=54th
nextWord=7950
prevWord=Corrects
prevWord=unaided
nextWord=unique
nextWord=50,000
8.20-8.50
nextWord=blockaded
prevWord=Croatia
prevWord=serves
nextWord=Togo
nextWord=withdraw
368-7
prevWord=server
nextWord=blockades
reports
nextWord=sign
mesures
prevWord=PREMIER
nextWord=Ewald
prevWord=Estimated
prevWord=traffic
nextWord=Tony
nextWord=auto
prevWord=restoration
vendors
revered
managerless
prevWord=Estimates
prevWord=insult
prevWord=table
bouncing
115,000
prevWord=SURGERY
prevWord=Geneva
prevWord=carnival
prevWord=flung
prevWord=resigned
nextWord=Place
prevWord=MANAGUA
prevWord=geography
nextWord=Gigi
128-1
prevWord=soyoil
fluidity
prevWord=transferring
128-4
nextWord=pro-abortion
prevWord=behalf
prevWord=moult
nextWord=Kurt
nextWord=Noureddine
prevWord=repeat
nextWord=joke
DLRS
sprinkling
prevWord=repeal
adoring
prevWord=aggravated
prevWord=Watkin
128.6
nextWord=Giga
nextWord=banking
nextWord=Gift
prevWord=winter
inject
t-shirt
prevWord=Clontz
foreigners
prevWord=credulity
drug-related
decisive
nextWord=3-33
prevWord=negotiation
prevWord=pneumonia
prevWord=urge
nextWord=Gina
nextWord=5,486,000
roadside
prevWord=gloom
understand
nextWord=technique
prevWord=poolside
prevWord=society
nextWord=mountainside
nextWord=post-handover
prevWord=manhunt
nextWord=3-20
repositioning
hundred
prevWord=boasts
nextWord=dispatching
nextWord=explosion
prevWord=year-earlier
prevWord=Stocks
prevWord=1,452-km
1:05.022
prevWord=Camdzic
prevWord=SNET
nextWord=sectarian
nextWord=Palestinian-ruled
0.275
prevWord=inaugurated
prevWord=clamped
nextWord=Stephanie
in-house
prevWord=corruption
prevWord=12.177).
nextWord=buses
nextWord=donation
tabloid
prevWord=governing
prevWord=skirmish
earlier
nextWord=Giro
nextWord=surprising
nextWord=Coventry
nextWord=Slovakia
prevWord=tenor
swap
lagged
prevWord=managers
nextWord=Housecall
prevWord=reelected
nextWord=sink
prevWord=Index
nextWord=Tosco
abdomen
nextWord=PRAECIP
selectors
surging
prevWord=exciting
nextWord=brigade
custodial
performing
prevWord=5644
compensatory
prevWord=reminded
nextWord=thumbs
conduct
prevWord=inform
prevWord=Showboat
marred
prevWord=UKRAINIAN
Thirteen
nextWord=52-week
prevWord=Mansfield
nextWord=bondholders
unidentified
lesser
nextWord=infrastructural
nextWord=Indonesian
nextWord=Indonesias
nextWord=Commem
nextWord=withdrawn
prevWord=Fremantle
nextWord=individuals
TRIAL
nextWord=4.7200
nextWord=14-year-old
circle
prevWord=indexation
nextWord=five-hitter
sophisticated
nextWord=Total
nextWord=items
seeding
prevWord=Carlton
5-187
honours
fiancee
nextWord=straining
prevWord=three-hitter
prevWord=Atlanta-based
nextWord=Plant
nextWord=COLONNA
prevWord=blurted
nextWord=second-longest
REQUEST
prevWord=range
reverts
nextWord=Osvaldo
prevWord=8:22:00
nextWord=sex-and-murder
prevWord=ranks
prevWord=Morton
prevWord=permanent
teething
prevWord=used
nextWord=Bangladeshi
trapped
prevWord=1,420.9
prevWord=injection
nextWord=high-performance
nextWord=penetrated
checks
prevWord=Indies
prevWord=HELSINKI
updated
swim
video
yesterday
nextWord=Gadoon
prevWord=punishable
prevWord=race-long
prevWord=57.2
6.14900
nextWord=Boavista
prevWord=uses
prevWord=PREMIUM
nextWord=Nablus-based
engineer
disposable
prevWord=Moengo
colour
Continent
nextWord=Luton
21-DAY
nextWord=site
prevWord=wraps
RACES
prevWord=Wengert
nextWord=motorcycling
prevWord=obvious
prevWord=exploratory
passers-by
prevWord=components
prevWord=Silpa-archa
prevWord=unforced
stationed
Quarterfinals
nextWord=extract
lesson
prevWord=66.74
prevWord=STAYED
prevWord=66.72
nextWord=burnt
prevWord=RALLY
prevWord=Indre
5-1/2
5-1/3
nextWord=size
prevWord=respirator
nextWord=Suzuki
39th
nextWord=Avianca
prevWord=66.60
prevWord=subversive
nextWord=positively
Lead
prevWord=priority
prevWord=GROZNY
prevWord=al-Risala
prevWord=72-year-old
prevWord=fluid
reverse
nextWord=looming
nextWord=six-game
subsidies
prevWord=HISTORIC
nextWord=infamous
prevWord=blackmail
nextWord=sellers
nextWord=burst
nextWord=Yasser
nextWord=milkman
nextWord=perceived
beat
prevWord=fulfilment
nextWord=priest
nextWord=7:51
30,000
Officials
prevWord=Zenith
nextWord=permits
4x100
prevWord=meditation
prevWord=darker
colony
prevWord=complicated
nextWord=08/23/96
Better-than-expected
nextWord=galloped
prevWord=`SERIOUS
nextWord=destroyed
662-252-9950
prevWord=Rudar
nextWord=MG-Technogym
prevWord=meditating
prevWord=Becanovic
interviewer
nextWord=shipload
prevWord=infighting
nextWord=exclude
interviewed
prevWord=Swedish
nextWord=degree
Historical
settlements
nextWord=Argentina
been
prevWord=Nyakyi
beef
nextWord=Argentine
nextWord=Confrontation
0.300
prevWord=55th
stimulant
appreciate
coupons
nextWord=windspeed
diverse
beer
POLICE
prevWord=Borac
prevWord=deadline
nextWord=SUMMON
unspecified
nextWord=fractionally
preference
nextWord=slight
nextWord=coat-tails
prevWord=movie
prevWord=42.45
prevWord=bookable
nextWord=vacancy
prevWord=6-440
German-born
prevWord=schedule
Gen'l
Akbar
nextWord=new-found
nextWord=diminish
prevWord=rain-shortened
sixth-seeded
sheepmeat
nextWord=expanding
prevWord=8:17.29
nextWord=Bilbao
prevWord=campaigning
prevWord=OCEI
regarded
prevWord=Liege
prevWord=knives
prevWord=speeches
prevWord=accumulated
prevWord=Republican-written
nextWord=shed
nextWord=bicycle
1:53.067
prevWord=17.29
prevWord=29.2-9-83-3
reply
prevWord=1,897.85
prevWord=Osterloh
prevWord=stones
trough
nextWord=proceed
prevWord=Compared
horseback
prevWord=Nadu
prevWord=SOSA
5-3/4
conclave
nextWord=risen
nextWord=marched
nextWord=triumphal
nextWord=Gaissmayer
nextWord=Disperse
shameful
nextWord=6,500
nextWord=Woodlands
prevWord=8:17.66
nextWord=wholesale
nextWord=programming
prevWord=swiss
prevWord=non-seeded
prevWord=aggregates
prevWord=prohibited
nudged
forehand
prevWord=17.50
nextWord=sham
prevWord=truth
jumpstart
dropped
prevWord=JULY
prevWord=Drnovice
prevWord=Aussies
nextWord=leaked
prevWord=immigrants
nextWord=shaggy
nextWord=48,800
prevWord=384-6364
0.375
20-6-70-2
brackets
prevWord=trust
nextWord=mandate
prevWord=Rabinovich
nextWord=Anders
prevWord=570M
prevWord=Strasbourg
nextWord=Derbyshire
nextWord=19,734.70
prevWord=promising
prevWord=ounces
nextWord=ex-captain
prevWord=swift
1:53.043
stillborn
prevWord=17.05
prevWord=JUNE
prevWord=Katayama
prevWord=UDINESE
nextWord=regiment
TEAMS
nextWord=photos
nextWord=dispelled
Corrigendum
nextWord=Rubens
nextWord=Volendam
prevWord=handsome
nextWord=blacks
rotate
Obviously
prevWord=project
prevWord=Scarborough
short-term
prevWord=200-an-hour
opponent
nextWord=unrelated
international
upward
prevWord=swine
prevWord=swing
post-mortem
corporations
prevWord=FIFA
prevWord=confiscation
prevWord=saint
nextWord=Chryste
prevWord=moved
prevWord=putdowns
nextWord=Government
prevWord=currently
prevWord=notorious
nextWord=Vogue
borders
prevWord=moves
best
prevWord=METRES
prevWord=Privatising
nextWord=Lausanne
prevWord=inflated
prevWord=inserted
nextWord=Skopje
nextWord=flags
pretended
nextWord=Kaolack
prevWord=generation
compound
0.355
concerning
regulation
conventional
prevWord=lightning
prevWord=behave
nextWord=refer
nextWord=long-distance
Unknown
massacre
disposals
prevWord=cementing
prevWord=Ozers
runner
nextWord=explosive
backdrop
prevWord=Gutenstein
nextWord=French-educated
prevWord=expensive
prevWord=Morariu
nextWord=maybe
prevWord=RAPIDS
nextWord=875,000
prevWord=resources
prevWord=0.4-0-9-0
nextWord=buttocks
prevWord=Ljupce
prevWord=Galeforce
nextWord=show
nextWord=constantly
10-game
nextWord=undaunted
nextWord=shop
1:04.732
nextWord=anti-government
prevWord=429,449
nextWord=shoe
nextWord=distracting
prevWord=multple
schoolgirl
prevWord=Nasr
nextWord=experts
prevWord=ONE-DAY
rebellion
reaction
prevWord=dark
prevWord=unleashing
Eighth
prevWord=arsenals
prevWord=disagreed
Prev
afraid
After
nextWord=4.7300
trawlers
prevWord=novitiate
prevWord=demonstration
prevWord=fluids
prevWord=EXPRESS
refugees
prevWord=CNB-120
prevWord=Kilda
nextWord=shun
2-0-14-0
nextWord=Giunluca
nextWord=hardliners
reform-oriented
prevWord=stubbornly
replacing
nextWord=threatening
prevWord=guilt
prevWord=date
prevWord=data
prevWord=Coles
expires
prevWord=Navy
nextWord=Chesterfield
prevWord=Dozens
nextWord=scoreboard
expired
prevWord=pre-season
nextWord=opting
prevWord=Inflows
nextWord=Bundesbank
meningitis
nextWord=shrs
nextWord=65.66
prevWord=truly
nextWord=option
nextWord=65.61
nextWord=process
prevWord=extradite
nextWord=Bobbie
nextWord=Volkswagen
prevWord=vagrants
equestrian
Trainer
stepping
prevWord=8:17.94
prevWord=desolate
nextWord=79.9
nextWord=incompetent
prevWord=Nagy
prevWord=fluctuations
nextWord=journey
nextWord=Bradford
prevWord=mount
Secondhand
5-203
nextWord=popular
prevWord=Wodzislaw
10,000-seat
nextWord=SOLIDERE
prevWord=abusing
prevWord=756525
prevWord=FIRM
prevWord=truce
nextWord=incentive
filing
prevWord=truck
prevWord=254,247
policed
prevWord=Two-try
5-217
seize
prevWord=Ruehe
prevWord=shelter
5-220
nextWord=WASHINGTON
DOUBLE
Proj
year-half
undergo
prevWord=shrank
prevWord=disbelief
prevWord=Carlsen
nextWord=kickoff
prevWord=coxless
prevWord=jeopardising
prevWord=Rawandouz
prevWord=TEMPS
nextWord=consists
prevWord=Alexandroupolis
culture
prevWord=second-quarter
slaughterhouses
9,800
prevWord=buggered
nextWord=Masayoshi
prevWord=trimmed
prevWord=Colon
prevWord=mourn
nextWord=49,269
prevWord=client
nextWord=85.26
5-240
nextWord=16.75
nephew
from
5-248
prevWord=mouse
nextWord=includes
prevWord=lashed
SUNDAY
nextWord=Umbria
finished
nextWord=65.00
fortress
prevWord=66-14
prevWord=peoples
prevWord=Mongia
nextWord=Bermuda
prevWord=hat-trick
prevWord=mouth
nextWord=4,658,000
prevWord=Nano
prevWord=importing
nextWord=Andean
prevWord=villagers
prevWord=electricity
paper
nextWord=16.98
nextWord=16.97
prevWord=responding
prevWord=33,230
prevWord=Schnell
prevWord=genocide
prevWord=landing
prevWord=damp
nextWord=witnesses
nextWord=rites
prevWord=MONDAY
nextWord=Amoco-Yemen
nextWord=tabulate
prevWord=loudness
nextWord=16.36
nextWord=inconclusive
nextWord=16.35
prevWord=52nd
prevWord=Brabham
valuing
nextWord=6,425
prevWord=Serbia
nextWord=7717
nextWord=7715
nextWord=TORONTO
fairly
prevWord=Pearson
motorcycles
prevWord=SLIM
protesters
nextWord=fights
prevWord=95975
prevWord=5432
nextWord=snapping
prevWord=Wyborcza
shortly
semis
providing
nextWord=owned
nextWord=7706
insistence
0.445
prevWord=Defenders
prevWord=parallel
nextWord=owner
nextWord=Sigeki
nextWord=16.50
prevWord=serve
nextWord=embarrassing
supporters
linked
prevWord=ISLAND
nextWord=journal
prevWord=months
workout
nextWord=16.66
nextWord=16.63
nextWord=impassable
prevWord=5452
communicate
nextWord=integrated
interrogations
nextWord=HIGH
prevWord=shattering
prevWord=2.17M
nextWord=seats
prevWord=shortfall
teetotaller
prevWord=12,855.7
prevWord=upon
prevWord=7-1/8
remedy
article
prevWord=laughed
prevWord=7-100
nextWord=16.00
nextWord=70,375,000
Taxable
applauded
raged
prevWord=Newark
prevWord=villa
nextWord=APARTHEID
prevWord=7-1/3
prevWord=STUTTGART
previously
prevWord=Subpoenas
striker
prevWord=indulged
strikes
pasta
nextWord=approve
prevWord=TriNations
improvement
16-party
prevWord=Haruchika
eight-month-old
nextWord=happened
prevWord=loyal
prevWord=off-season
prevWord=Spurred
three-stroke
number
nextWord=387.50
nextWord=booking
prevWord=brighter
nextWord=colonial
1:52.354
prevWord=witchdoctor
nextWord=explosions
prevWord=rally
urged
nextWord=Belarus
ponders
prevWord=Slams
partial
urges
prevWord=devastating
nextWord=syndicated
fundamentals
nextWord=clubs
prevWord=moustache
prevWord=checkpoint
nextWord=10,000-seat
prevWord=SLAM
prevWord=chupabolos
nextWord=shelled
nextWord=track
nextWord=culture
QUAL
filled
man-of-the-match
prevWord=absorption
nextWord=14.828
nextWord=trace
18-year-old
nextWord=provisional
prevWord=liquor
nextWord=tract
bumble
nextWord=seals
hundredths
catcher
catches
nextWord=concluding
nextWord=Devon
17,166,000
nextWord=frenzy
nextWord=Alomella
admission
nextWord=trail
nextWord=commuted
785.00
1:52.318
nextWord=Govt.Fcast
prevWord=papers
nextWord=echoing
nextWord=Uppsala
coupled
nextWord=commuter
dusty
prevWord=relatively
prevWord=Facchinetti
nextWord=Woodridge
nextWord=12,800-13,000
nextWord=Guinean
prevWord=workforce
prevWord=reputation
nextWord=fact
nextWord=investement
prevWord=safer
saying
prevWord=43-man
prevWord=swimming
nextWord=teenaged
prevWord=119.49
warm-up
nextWord=shoulders
nextWord=41.0-42.5
nextWord=Jan-April
prevWord=EXPANSION
prevWord=Doboj
prevWord=FEATURES
07.00
nextWord=cross-border
nextWord=reconvene
1:04.834
prevWord=Heysel
prevWord=ascertain
turn-out
nextWord=gainers
prevWord=Evolution
prevWord=influx
prevWord=interpretations
nextWord=fair
prevWord=disposing
FINALS
nextWord='re
prevWord=Books
prevWord=33,149
SNEAK
nextWord=disposing
prevWord=Rubin
Proceeds
prevWord=negotiate
nextWord=felons
prevWord=postponement
nextWord=GRIQUALAND
popular
missionaries
nextWord=scrapie
prevWord=overshoot
stunts
colourful
320.00
Revised
castle
prevWord=combat
individuals
escalating
prevWord=pornography
nextWord=passionate
prevWord=Gluten
nextWord=colonies
prevWord=RESULTS
prevWord=polishing
nextWord=Pang
prevWord=2:39.00
nextWord='ve
nextWord=65-66
nextWord=fame
Consultations
Continuing
signals
nextWord=2562.094
prevWord=stations
nextWord=pleasing
1:51.960
nextWord=floods
parties
nextWord=tight
nextWord=Notting
nextWord=french
nextWord=kidnapping
1:04.896
nextWord=65-56
situated
prevWord=officials
vigilance
killings
nextWord=Vancouver
Exploration
prevWord=1.5497
nextWord=fake
hydroelectric
EVOLUTION
1:05.219
nextWord=escorted
prevWord=fractionally
nextWord=Palk
nextWord=risky
nextWord=JORGE
glancing
3.5486
prevWord=Bahamas
nextWord=pro-woman
prevWord=swept
Batting
designate
captivated
nextWord=Parc
prevWord=bloody
nextWord=Para
speculated
12:01
prevWord=Neemuch
purely
ramshackle
prevWord=sugarcane
guard
prevWord=explicit
freedom
nextWord=Krpaco
prevWord=Publishing
nextWord=nasty
nextWord=red-haired
prevWord=shifts
nextWord=pesos
nextWord=Kremlin
prevWord=77-minute
Envoy
2,020.82
landmines
nextWord=insufficient
prevWord=headache
nextWord=opportunity
prevWord=+46-8-700
prevWord=region
prevWord=patron
prevWord=patrol
nextWord=lasted
prevWord=assistance
5-365
nextWord=continue
nextWord=BOSTON
prevWord=83,008
nextWord=Wilhelmina
nextWord=106.375
nextWord=pages
unauthorised
parting
prevWord=seemed
nextWord=4.7000
prevWord=commercial
prevWord=Hitler
prevWord=retook
prevWord=passorts
nextWord=fate
prevWord=regime
nextWord=23,000-strong
nextWord='ll
prevWord=Jailed
miracle
prevWord=derives
nextWord=obstacles
prevWord=submitted
nextWord=transfers
nextWord=numbers
prevWord=triumphal
prevWord=About
stupid
prevWord=fiddling
brandished
nextWord=16-17
offer
nextWord=16-18
nextWord=chips
prevWord=Schwarz
Quake
prevWord=COMPANY
hookers
inadequacy
prevWord=2,292.9
nextWord=revered
prevWord=short-lived
nextWord=sluggish
819.10
nextWord=arid
nextWord=76.6
5-5/8
prevWord=volatility
sixth
nextWord=talented
prevWord=Gains
prevWord=Something
prevWord=53rd
prevWord=precise
prevWord=5565
customers
Selected
Speaker
nextWord=Dakar
jeopardise
nextWord=Huddersfield
entered
nextWord=sexy
nextWord=.Robbie
chimed
834405
nextWord=Erwin
prevWord=Pinero
225-5
nextWord=5,951
developed
vehement
prevWord=91.05
Volumes
prevWord=Eriksson
cereals
prevWord=uprooted
parts
prevWord=maturity
nextWord=purposes
visiting
sources
doubleheader
Instead
nextWord=Ainars
nextWord=6603377
prevWord=Juventus
prevWord=stubborn
views
nextWord=higher-than-average
assurances
historic
nextWord=floors
prevWord=funds
prevWord=guaranteed
nextWord=FLOURISH
prevWord=91.37
nextWord=drafted
prevWord=91.36
819.30
nextWord=three-session
farmer
prevWord=dipping
mechanical
prevWord=hurdler
prevWord=hurdles
counsels
nextWord=Partnership
prevWord=nearly
nextWord=herbicides
prevWord=Libya
nextWord=profitability
realised
state-paid
prevWord=collided
prevWord=02.SEP.96-21.NOV.97
nextWord=3.50-4.00
prevWord=collides
Mar.97
judgement
brought
prevWord=Kudapokuna
nextWord=STREAK
stupor
prevWord=quartering
prevWord=Klongprem
prevWord=inflow
nextWord=LTTE
prevWord=dunked
nextWord=7658
nextWord=volatile
prevWord=55.1
composer
nextWord=Niclas
tabular
prevWord=spectacle
prevWord=friction
pensions
prevWord=Bolger
nextWord=Uniceramic
prevWord=solitary
nextWord=Zaire
outrage
prevWord=projected
prevWord=sweetened
nextWord=separate
*INDICES
2,563.16
housewares
unnerved
prevWord=5500
nextWord=incitement
nextWord=Srebrenica
nextWord=breeders
industrialists
prevWord=Pineda
jeopardize
prevWord=Beauvau
prevWord=Barmasai
prevWord=5511
nextWord=Jose-Maria
loses
loser
Winning
nextWord=Conservative
durum
marvelling
economist
sells
prevWord=5522
nextWord=1-3/4
sadmasochistic
raised
nextWord=rummaging
prevWord=indiscriminate
prevWord=Lanner
prevWord=maturing
nextWord=atmosphere
prevWord=communities
prevWord=DINAMO
nextWord=Lubarskij
threatening
nextWord=measured
somewhere
prevWord=withering
nextWord=reverts
objective
nextWord=three-day
prevWord=Stuer-Lauridsen
nextWord=camoflage
prevWord=constitutional
nextWord=ambush
raises
prevWord=layoffs
81.12
prevWord=Schwabl
inadequate
37.1-7-97-3
prevWord=violating
prevWord=Iran
prevWord=Iraq
nextWord=Glenview
prevWord=Zarraga
prevWord=Illawarra
two-year
nextWord=designs
lords
81.00
nextWord=stumped
prevWord=Vitoux
56.70
prevWord=Mehrtens
nextWord=Werder
redeemed
prevWord=Tychy
prevWord=evasion
prevWord=inspection
nextWord=ailing
prevWord=Hadlee
crippled
prevWord=Quinn
surprised
1:05.300
nextWord=reverse
nextWord=Moroccan
nextWord=strategy
surprises
prevWord=requirement
laughing
nextWord=attributable
nextWord=gesturing
declare
nextWord=typically
nextWord=15.125
prevWord=Utomo
prevWord=solemn
prevWord=organisation
52-week
32.40
claiming
81.58
prevWord=sidestepped
prevWord=solely
unusual
nextWord=unexpected
Acting
athlete
prevWord=advisory
prevWord=Quite
year-long
nextWord=incomprehensible
prevWord=explained
once
nextWord=noteworty
prevWord=Quist
nextWord=consistent
prevWord=semi-upright
prevWord=downtrend
figures
prevWord=GENEVA
prevWord=------------------------------------------------------------
prevWord=highest-ranked
prevWord=censure
manoeuvre
prevWord=Woodridge
prevWord=SNCF
25.49,(3-yr
litigation
nextWord=complete
nextWord=9,000
ones
legislations
81.64
nextWord=exiting
prevWord=1.5520
nextWord=10-year
prevWord=Scifo
prevWord=immigrant
prevWord=Leonean
nextWord=trapped
teeth
timber
collar
nextWord=OLYMPIC
prevWord=well-oiled
prevWord=instantly
nextWord=9,018
nextWord=bullet
expenditures
nextWord=private
prevWord=high-level
nextWord=7,330,000
prevWord=Hadad
nextWord=machismo
450,000
drivers
prevWord=requiring
nextWord=qrtly
nextWord=Olivia
provoked
prevWord=Mayfair
nextWord=Copenhagen
prevWord=profiles
nextWord=overreacting
blocked
64-stroke
objection
prevWord=limits
prevWord=Rewe-Handelsgruppe
nextWord=instances
prevWord=defying
tired
56.00
prevWord=Hampshire
nextWord=projected
nextWord=dungeon
highlights
56.06
nextWord=Mirhunisa
prevWord=38:33.595
nextWord=Thousands
prevWord=Tetteh
prevWord=cooperate
prevWord=observe
prevWord=persistently
crashes
parks
sixes
offal
sacked
only
crashed
prevWord=Implied
unaudited
prevWord=Hashimoto
prevWord=demolishing
ringleaders
thumbnail
prevWord=one-third
accepted
testimony
prevWord=wagons
prevWord=Tartous
prevWord=KIRKLAND
prevWord=trouble
sucessful
inebetude
nextWord=Oliver
studies
prevWord=ordering
greatest
nextWord=gather
studied
nextWord=Stephen
resembled
prevWord=schoolchildren
prevWord=33,000
6-1-17-0
prevWord=violation
188,143
explosive
prevWord=1.19
prevWord=45.455
prevWord=perceived
stalemate
shrugged
nextWord=Coming
prevWord=situation
prevWord=submit
prevWord=hollow
prevWord=forensic
prevWord=1.24
nextWord=Hutnik
prevWord=single-digits
prevWord=1.20
nextWord=interpretation
prevWord=1.26
nextWord=fast-growing
prevWord=All-Ordinaries
nextWord=contract
nextWord=narrowed
nextWord=hailed
prevWord=southwest
extracts
prevWord=affadavit
prevWord=beyond
1.000
prevWord=19-man
nextWord=Lennart
nextWord=Vasas
prevWord=1.38
nextWord=surprisingly
rheumatoid
prevWord=Anjalonkoski
prevWord=1.43
prevWord=1.45
raids
569399
resigned
prevWord=1.48
nextWord=Umberto
prevWord=pointedly
privately-operated
nextWord=15:04.94
prevWord=Uniceramic
benched
prevWord=1.55
nextWord=Khum
prevWord=1.56
prevWord=1.50
nextWord=Inter-Entity
prevWord=1.59
nextWord=PRICE
unemployement
nextWord=stakeout
nextWord=Bodo
prevWord=activists
prevWord=1.60
prevWord=Everyone
prevWord=Caminiti
prevWord=audience
nextWord=represents
prevWord=1.64
nextWord=drivers
nextWord=nascent
nextWord=stringent
nextWord=Boca
nextWord=pro-reform
nextWord=searches
onto
prevWord=1.70
prevWord=sought
prevWord=stumped
nextWord=searched
32,000
prevWord=1.75
prevWord=locked
226-1
226-5
prevWord=suffering
flown
prevWord=1.80
prevWord=1.82
flows
prevWord=1.88
nextWord=new-ball
prevWord=bearded
nextWord=Slovan
nextWord=Slovak
purged
prevWord=1.85
first-inning
72-year-old
prevWord=neither
nextWord=+167,330
nextWord=sixth-seeded
prevWord=1.90
prevWord=1.91
explosion
prevWord=wholly-owned
nextWord=bullion
nextWord=9.0-12.0
nextWord=dispatch
prevWord=1.94
prevWord=Puchon
prevWord=1.97
observance
prevWord=Ibrahim
prevWord=quantify
nextWord=large
prevWord=venue
1:51.778
flour
prevWord=echoing
nextWord=mummification
nextWord=environment
rains
nextWord=slogans
nextWord=assembled
nextWord=half-yearly
prevWord=explosion
nextWord=HEADBUTT
nextWord=Wally
prevWord=sectarian
nextWord=Strobe
prevWord=indefinitely
nextWord=202.90
nextWord=freezer
prevWord=Jumbish
prevWord=58th
prevWord=Oliveira
acquiring
rails
noise
nextWord=5.1700
stupidity
premier
nextWord=bullish
noisy
reminded
nextWord=murder
nextWord=sweating
prevWord=encamped
sacks
nextWord=abolished
pitted
nextWord=400-425
nextWord=Nottinghamshire
fuel
nextWord=Betar
marijuana
explosives
nextWord=Bold
prevWord=correct
nextWord=.307
nextWord=credulity
prevWord=207,990
raise
nextWord=tendering
comparison
nextWord=Takuma
Corrects
revert
nextWord=halting
adventure
redraw
improve
prevWord=roadside
prevWord=Fujiwara
prevWord=3,800-3,825
prevWord=explosive
troop
lovebites
prevWord=1.00
prevWord=sauce
prevWord=1.02
floor
nextWord=technological
prevWord=1.07
prevWord=1.09
prevWord=1.03
nextWord=202.65
prevWord=1.05
investor
prevWord=8-519
nextWord=Pontefract
prevWord=Mechelen
nextWord=accounted
1:51.784
prevWord=1.10
prevWord=clarifications
prevWord=1.12
prevWord=1.13
nextWord=8,600
prevWord=phenomenon
prevWord=customers
nextWord=none
nextWord=maker
vitriol
nextWord=1,164.1
prevWord=112.0-149.0
nextWord=.349
counter-attack
prevWord=out-of-town
prevWord=vacancy
ballet
prevWord=brick
prevWord=Bermuda
Elephants
nextWord=Guenter
nextWord=.359
nextWord=.356
nextWord=middle-distance
nextWord=.357
nextWord=.354
nextWord=non-
nextWord=.353
nextWord=1=.6421
nextWord=Bonn
prevWord=Opinion
prevWord=56,261
nextWord=contrary
nextWord=7:48.38
rewritten
prevWord=soymeal
prevWord=Telecom
nextWord=enemies
prevWord=PHILIPPINE
prevWord=cataloguing
prevWord=bribe
southwest
prevWord=positioned
laminate
two-thirds
nextWord=Both
nextWord=wide
Unlike
acquired
prevWord=connection
nextWord=Franz
nextWord=UKRAINIAN
prevWord=interpreted
nextWord=Emajuddin
full
resistant
nextWord=wife
nextWord=7-11
nextWord=shirtfront
prevWord=90-day
nextWord=.367
nextWord=7-15
prevWord=2843-6470
nextWord=noon
nextWord=.362
nextWord=measuring
nextWord=47-year-old
INTERNATIONALS
manage
prevWord=anti-graft
prevWord=formation
fund
prevWord=Moslem-led
prevWord=Remarkably
nextWord=powder
nextWord=potential
nextWord=UEFA
prevWord=Basler
nextWord=wigs
Come
prevWord=McMillan
nextWord=+27
nextWord=+25
prevWord=trawler
prevWord=auctions
nextWord=+22
Presently
nextWord=+20
prevWord=weighted
nextWord=09/01/96
prevWord=waivers
nextWord=bouquets
nextWord=easing
nextWord=narrowly
prevWord=CRASH
deputy
nextWord=Bahia
players
prevWord=stupidity
prevWord=managing
nextWord=+19
nextWord=+16
nextWord=+17
nextWord=+12
bids
famished
nextWord=gymnasium
nextWord=Jan-May
nextWord=wire
nextWord=note
prevWord=TENDULKAR
fuse
premium
aided
prevWord=Engineering
nextWord=COUNCIL
solidarity
15-foot
nextWord=injection
nextWord=appearing
nextWord=Graafschap
Conc
aides
nextWord=wish
nextWord=120.5
prevWord=arose
prevWord=receive
nextWord=clerk
prevWord=25.49,(3-yr
nextWord=nose
nextWord=multple
abandoning
nextWord=aims
prevWord=recalled
prevWord=12,000
unforced
nextWord=Vasco
recognizing
nextWord=wild
prevWord=Immaculate
prevWord=belief
strikers
Like
nextWord=+65
nextWord=Leyton
960,000
prevWord=Devereaux
prevWord=Kappes
nextWord=smaller
nextWord=020-504-5040
Core
prevWord=agreed
prevWord=tanks
August
season-high
perceived
ample
prevWord=independently
residents
pretax
8-15
nextWord=wind
nextWord=wine
nextWord=wing
8-13
8-10
nextWord=+49
bike
nextWord=+47
nextWord=+45
nextWord=+41
prevWord=280,556
prevWord=GENERAL
fooled
wildly
prevWord=agrees
prevWord=Kocinski
nextWord=gathered
prevWord=Xhelili
prevWord=Higher
prevWord=concluding
prevWord=liaison
culminated
prevWord=bring
prevWord=DINAMINA
nextWord=terrified
coffers
prevWord=Dewulf
apartment
nextWord=lightning
nextWord=immunizes
nextWord=TOPPLES
prevWord=culprit
reductions
prevWord=defy
prevWord=stadium
prevWord=Shehu
nextWord=scorer
nextWord=scores
bind
depending
prevWord=86.82
nextWord=Libyan
prevWord=Liechtenstein
prevWord=Bekescsaba
prevWord=roadblocks
nextWord=journals
Compared
bill
nextWord=easier
prevWord=footing
1.126
nextWord=neighbourly
nextWord=Tang
adult
prevWord=courts
prevWord=conclave
nextWord=confirmation
prevWord=looming
prevWord=28.42.23
existed
prevWord=Bianchi
nextWord=1.4779
prevWord=optional-origin
nextWord=currently
nextWord=penalities
nextWord=Kaspars
prevWord=5.2420
prevWord=shameful
involve
nextWord=1.4788
prevWord=Malchugina
leftist
nextWord=1.4789
prevWord=course
prevWord=hovered
nextWord=undertaken
Shortly
launching
nextWord=1.4765
bird
List
nextWord=Tass
prevWord=transit
nextWord=authors
prevWord=Sheep
prevWord=orator
nextWord=monarchy
prevWord=Sheet
Finals
month
Early
nextWord=involvement
vehemently
Confirmed
prevWord=right-hand
prevWord=versions
nextWord=Artyom
title
prevWord=fixture
nextWord=Pascal
prevWord=304,850
nextWord=TriNations
nextWord=385-1-4557075
prevWord=Camden
prevWord=tapes
prevWord=BALL
prevWord=Medicine
ground-floor
prevWord=regarded
VERN
nextWord=Vietnamese
putdowns
nextWord=CHANGE
prevWord=Poznan
convert
nextWord=Abdul-Karim
prevWord=refugees
Halftime
prevWord=Criville
prevWord=situations
nextWord=disqualify
prevWord=Bengal
CONFIRMED
prevWord=compound
usually
prevWord=59th
Lezion
nextWord=Lhasa
sense
nextWord=sex-abuse
prevWord=expell
prevWord=BRISBANE
1:51.884
wilderness
nextWord=Kunar
nextWord=head-butting
nextWord=frequent
nextWord=Otis
nextWord=buggy
prevWord=three-month-to-three-year
nextWord=nervy
nextWord=portfolios
prevWord=09/05/1996
herald
nextWord=nerve
prevWord=Helmer
Barter
DRAW
nextWord=showers
prevWord=deal
nextWord=promising
nextWord=unveiled
nextWord=45,020,000
nextWord=CHANDA
prevWord=dead
prevWord=deaf
prevWord=Beryllium
residency
prevWord=Solovyov
nextWord=FORECAST
casino
prevWord=1.1875
nextWord=jazz
prevWord=debt
Result
convent
prevWord=13.64
convene
prevWord=13.65
prevWord=13.66
prevWord=13.67
residence
prevWord=Bichette
nextWord=Brussels
paralyse
prevWord=13.75
nextWord=quotes
38:32.040
wrangle
prevWord=serve-and-volley
prevWord=1/16
5-7/8
prevWord=Nalkhera
nextWord=PRIZE
prevWord=saved
prevWord=HONDURAS
prevWord=13.80
prevWord=BACK
exactly
FOURTH
wicket
prevWord=deep
prevWord=Citing
anti-drug
chunkTag=B-VP
prevWord=wrote
prevWord=1/32
prevWord=Next
prevWord=13.26
patch
prevWord=13.24
consummate
height
moderate
prevWord=Kelly
prevWord=INTERNATIONALS
prevWord=briefly
prevWord=13.37
prevWord=clarification
prevWord=13.38
prevWord=Neza
flood
prevWord=13.36
prevWord=13.33
invested
prevWord=wrong
nextWord=floated
PARTY
nextWord=troubles
nextWord=Zundra
association
prevWord=counter-attack
nextWord=floater
nextWord=reshuffle
prevWord=overdone
prevWord=13.42
nextWord=Hammerson
nextWord=troubled
prevWord=13.45
nextWord=horse
prevWord=dressed
prevWord=Harte
prevWord=2,146.79
prevWord=Platignum
prevWord=Baldwin
nextWord=terrorist
prevWord=underlying
prevWord=13.53
prevWord=expert
nextWord=terrorism
nextWord=CHICAGO
vagrants
open
nextWord=what
nextWord=pacesetters
1:51.857
prevWord=9-120
funded
prevWord=Activist
prevWord=dragged
prevWord=financially
Subpoenas
nextWord=10.5-42.3
prevWord=programs
nextWord=accelerate
prevWord=tragic
uneasiness
prevWord=3.412
nextWord=averages
pointedly
prevWord=Stores
prevWord=degrading
proposals
prevWord=Wilmots
prevWord=companions
nextWord=horns
ranged
nextWord=descendant
date:August
nextWord=shaken
nextWord=shakes
prevWord=rocks
prevWord=524.2
prevWord=afterwards
prevWord=13.18
nextWord=12/09
prevWord=dominating
prevWord=weigh
nextWord=12/01
money
prevWord=overdose
nextWord=Massachusetts
prevWord=Tebbutt
nextWord=reflects
prevWord=clinched
fingers
revolution
prevWord=RICHMOND
nextWord=AVERAGES
linking
nextWord=batons
worsened
nextWord=whom
prevWord=BANK
among
prevWord=Ranatunga
prevWord=briefed
nextWord=three-run
nextWord=drinkers
nextWord=FAT8222
prevWord=Lyngby
prevWord=STAR
161,600
defended
prevWord=pulled
nextWord=104.625
8.05
8.02
8.03
8.09
8.06
8.07
genocide
8.00
nextWord=programmes
nextWord=obvious
prevWord=non-cumulative
prevWord=tonight
nextWord=MAJOR
pelted
defender
8.15
prevWord=Shell
principality
prevWord=elected
pro-child
prevWord=desk
8.17
8.18
prevWord=evening
nextWord=wheel
8.12
prevWord=hyper-inflation
prevWord=zero
nextWord=1997/98
8.10
rekindled
prevWord=Iraq-bound
frittered
prevWord=stepping
prevWord=Stentex
nextWord=indictment
8.26
8.24
8.25
nextWord=answer
8.29
failed
prevWord=Havana
8.22
8.20
prevWord=effort
nextWord=peasants
8.35
8.39
8.30
prevWord=Higashi
26:43.53
8.32
prevWord=palace
prevWord=STEP
balked
nextWord=Associated
8.46
Headlines
prevWord=predictions
8.45
prevWord=EMBASSY
buggered
prevWord=UHELNA
8.57
8.52
8.50
nextWord=61.94
8.56
nextWord=.02
8.54
nextWord=Pre-election
nextWord=.01
prevWord=FRIDAY
nextWord=quarter-finals
nextWord=prosecutions
nextWord=December
nextWord=Together
nextWord=Cargill
8.62
nextWord=61.80
8.63
8.61
8.67
prevWord=Bowling
permits
guess
guest
prevWord=11,525
happening
prevWord=nothing
prevWord=Libanais
prevWord=finished
nextWord=readying
nextWord=outlawed
1.215
nextWord=61.74
8.70
nextWord=hunger
1.210
nextWord=Brighton
nextWord=tabulated
sweep
prevWord=NEAGLE
prevWord=positions
prevWord=anxious
nextWord=limped
1:51.588
nextWord=61.64
prevWord=ignorance
12-year
nextWord=coupons
prevWord=ostracism
two-time
14:59.70
prevWord=Choonhavan
prevWord=4,200-acre
8.90
prevWord=people
female
6-205
volume
nextWord=61.44
1.206
nextWord=Montrose
1.209
prevWord=LARNACA
nextWord=61.45
nextWord=Luigi
prevWord=evade
kilovolt
31,412
prevWord=connected
nextWord=.22
nextWord=61.36
prevWord=Savicevic
nextWord=Husqvarna
prevWord=Petersburg
prevWord=Halford
prevWord=modelling
prevWord=Carling
chiefly
praise
loosened
nextWord=.10
prevWord=312-408-8720--
nextWord=Norifumi
nextWord=GREECE
visited
sweat
prevWord=kingdom
prevWord=11,500
prevWord=cutout
prevWord=dawn
prevWord=alleging
moral
prevWord=Couto
nextWord=12.77
nextWord=90.18
nextWord=+310.4
nextWord=12.70
nextWord=12.71
secretariat
nextWord=revenue
nextWord=seeding
prevWord=400-425
prevWord=dislodge
1:51.528
nextWord=12.88
nextWord=61.00
driver
nextWord=12.83
drives
nextWord=12.85
nextWord=annually
nextWord=16.875
Official
driven
prevWord=Shikolenko
nextWord=90.20
prevWord=beast
prevWord=7-1-38-0
turnaround
prevWord=days
nextWord=89.40
swell
remind
prevWord=Nazi
prevWord=fanned
nextWord=12.95
nextWord=12.96
nextWord=12.91
nextWord=12.92
nextWord=Isbank
prevWord=pregnant
prevWord=Lebed
prevWord=artillery
nextWord=impeachment
prevWord=Peterborough
prevWord=crane
prevWord=Itoh
nextWord=COCU
nextWord=raided
prevWord=Pre-election
nextWord=8,400
nextWord=filling
nextWord=deteriorate
breaker
prevWord=SPLA
nextWord=liquids
portends
prevWord=56rd
prevWord=mercenaries
prevWord=unguent
thrifts
prevWord=considerably
nextWord=re-nominate
nextWord=90.50
prevWord=Cut-off-rate
nextWord=PUNR
nextWord=Oslo
prevWord=considerable
prevWord=scarce
REASONS
prevWord=ineligible
388.50
dispelled
prevWord=oilseeds
prevWord=abstain
388.55
nextWord=12.56
prevWord=56th
nextWord=12.50
prevWord=sewers
prevWord=arresting
prevWord=crash
stepped
frontier
prevWord=PRAECIP
prevWord=injury
nextWord=36.16
nextWord=PULL
steppes
prevWord=scared
nextWord=27,600
prevWord=BOLAND
nextWord=90.85
nextWord=12.60
nextWord=misleading
nextWord=Narino
nextWord=unusual
nextWord=CONC
lock-out
nextWord=struggle
nextWord=CONT
fully
nextWord=Nicole
prevWord=rain-curtailed
prevWord=talks
nextWord=hungry
nextWord=Burundi-Central
prevWord=restaurant
nextWord=Worcester
prevWord=unlit
nextWord=carburettor
158.82
prevWord=720,000
prevWord=certificates
militants
Epidemics
prevWord=21-day
nextWord=12.19
recommend
prevWord=Obviously
permitted
prevWord=Agius
disabled
prevWord=Seeing
prevWord=38:32.040
nextWord=Hearts
prevWord=KHARTOUM
prevWord=Witwatersrand
prevWord=recall
prevWord=Andrews
sneaked
prevWord=139.75
prevWord=Roca
understood
nextWord=artillery
prevWord=Giampaolo
prevWord=reiterates
prevWord=astonished
prevWord=115.58
prevWord=Lions
nextWord=alter
loudspeakers
prevWord=Authority
prevWord=NEWCOMBE
nextWord=aggressive
prevWord=Rock
nextWord=louder
prevWord=weathered
sinister
prevWord=Doorn
prevWord=Nuku'alofa
mentally
whatever
prevWord=115.62
prevWord=cathode
ignorance
chunkTag=B-PP
designs
wartime
hidden
54,800
nextWord=85-share
prevWord=Tinsley
prevWord=agronomist
prevWord=Giaconi
nextWord=Nicola
prevWord=Lecce
prevWord=extra-base
nextWord=PUTS
prevWord=rampaging
prevWord=derision
nextWord=disciplinary
nextWord=registering
prevWord=Simian
timely
nextWord=no.2
prevWord=humanitarian
nextWord=YOUR
N.M.
prevWord=beach
half-percentage
multi-ethnic
prevWord=breakdown
prevWord=Berovo
228.7
Hovercrafts
nextWord=packages
dissolution
nextWord=fighting
Beryllium
nextWord=internationally
FOCUS-News
nextWord=offering
prevWord=bumped
hardship
moderates
prevWord=Celica
Without
prevWord=well-known
adjourned
prevWord=supermarkets
prevWord=Boldon
theologian
prevWord=STANSTED
markka
nextWord=hard-pressed
prevWord=81,000
scoreline
hampered
nextWord=blasted
nextWord=9.0-10.5
prevWord=aegis
tampering
prevWord=16-party
prevWord=lacking
prevWord=texts
widow
nextWord=Redmond
non-prescription
8/30
6.0-percent
12-1-41-1
nextWord=Nsanze
rhetoric
marked
340.00
prevWord=Covas
prevWord=BOARDMAN
co-producer
nextWord=lasts
market
nextWord=mafia-style
keen
203.000
keep
prevWord=polls
nextWord=verdict
dictatorial
prevWord=crack
prevWord=131.7
339.00
nextWord=crossbar
prevWord=outclassed
nextWord=overstayed
nextWord=10,650,407
prevWord=O'Brien
nextWord=overstayer
prevWord=AIRES
left-hander
14-year-old
prevWord=Henchoz
nextWord=Diamond
nextWord=greenbacks
prevWord=gunbattles
prevWord=human
prevWord=tales
nextWord=snubbed
get-well
nextWord=repatriate
prevWord=abated
militancy
tournaments
nextWord=mesures
nextWord=Samson
nextWord=Tatran
prevWord=peasant
equity
prevWord=savings
state-by-state
prevWord=UP-AND-COMERS
nextWord=low-lying
prevWord=Kapoor
uprooted
promoting
nextWord=Frankfurt
prevWord=hope
prevWord=verdict
nextWord=Mauritania
prevWord=1-for-2
prevWord=doomed
prevWord=tighten
nextWord=inspections
prevWord=Hamiti
prevWord=Battersby
prevWord=waterworks
nextWord=ravine
prevWord=Fifteen
prevWord=Trnava
prevWord=Besides
nextWord=310.00
prevWord=1-15
prevWord=1-16
nextWord=Revenue
prevWord=235-6745
correspondents
55,000
nextWord=Auckland
prevWord=Bragantino
prevWord=Tauranaga
prevWord=improvement
nextWord=Jumbish
nextWord=Kent
nextWord=west
Rebels
prevWord=application
11,046,000
prevWord=Rose
prevWord=Leicestershire
fueled
prevWord=intercity
1.343
prevWord=spinoff
nextWord=convenient
nextWord=smallest
prevWord=Nicol
109.36
prevWord=75-100
exploratory
nextWord=Rewe-Handelsgruppe
prevWord=Hinchcliffe
nextWord=Arantxa
prevWord=1-48
109.45
prevWord=29-2/3
nextWord=cellar-dwellers
Silver
nextWord=Magali
celebration
ingrown
prevWord=symptoms
323-5
prevWord=1-57
prevWord=strategies
negotiators
mountains
MONEY
fully-elected
prevWord=abandoned
nextWord=morphine
prevWord=9,510.9
prevWord=parents
nextWord=blood
prevWord=diluted
nextWord=amputated
prevWord=Ezinwa
prevWord=1-64
nextWord=Oran
reporting
nextWord=8,333
nextWord=hurling
nextWord=plainclothes
nextWord=daubed
kept
unlucky
prevWord=hour
prevWord=boards
prevWord=end-of-season
prevWord=cantonal
nextWord=Florencia
promotion
nextWord=tandem
nextWord=8,320
nextWord=meditation
nextWord=STRIKE
delayed
nextWord=climb
prevWord=Mandsaur
nextWord=hours
nextWord=Rhineside
nextWord=26.7.1996
prevWord=Keino
METALS
nextWord=Dominic
134.44
134.40
prevWord=TAKES
kero
lower
nextWord=attributed
prevWord=hogs
nextWord=poetic
677.98
decree
prevWord=Axworthy
nextWord=Rameswaram
nextWord=build
nextWord=365,000
gypsy
nextWord=251/01
wider
nextWord=251/02
prevWord=Laboratories
nextWord=251/05
nextWord=Orel
nextWord=welded
nextWord=251/06
nextWord=251/03
prevWord=Winter
nextWord=251/04
nextWord=1.4935
indefinitely
nextWord=251/09
nextWord=251/07
nextWord=251/08
54,600
prevWord=manufactures
prevWord=3,000th
library
nextWord=residential
nextWord=36-46
prevWord=NEWCASTLE
prevWord=DENVER
prevWord=one-out
prevWord=manufactured
prevWord=killings
110.50
nextWord=dying
prevWord=harassing
prevWord=earliest
prevWord=Kredietbank
CALLED
nextWord=Gianfranco
prevWord=co-owned
oral
prevWord=Wrexham
prevWord=challenge
nextWord=Banglabazar
Probably
prevWord=Warzycha
nextWord=12-15
Conditions
prevWord=GOALSCORERS
nextWord=12-17
nextWord=Danish
prevWord=57th
nextWord=12-11
nextWord=7,961
nextWord=12-12
nextWord=weather
calming
prevWord=bowling
prevWord=Students
nextWord=clips
nextWord=second-quarter
nextWord=Caribbean
hyper-inflationary
prevWord=equal
prevWord=Empoli
prevWord=Rome
prevWord=Roma
Cut-off-rate
paving
nextWord=27,500
intercity
prevWord=jobless
centrist
prevWord=Rhineside
AUGUST
tablets
termed
prevWord=Cambodian
nextWord=Rennes
prevWord=Brumfield
prevWord=holy
nextWord=unsecured
prevWord=Patrika
nextWord=Orii
preparations
nextWord=committing
prevWord=Akashi
prevWord=tamper
nextWord=blown
faltered
prevWord=hole
prevWord=POKKA
17-16
prevWord=TELFER
pretty
nextWord=meditating
nextWord=re-examine
17-14
cavorting
friction
prevWord=Room
nextWord=6.14900
compliant
prevWord=overreacting
nextWord=650,000
nextWord=Romania
MONTH
strategic
prevWord=Ivorian
bowlers
prevWord=mountains
388.75
whopping
prevWord=headed
prevWord=roads
breaking
orgy
prevWord=interferon
diseases
prevWord=1,700-hectare
prevWord=Happy
blood-red
nextWord=ruined
prevWord=weekend
nextWord=3-334
prevWord=Alloush
blew
nextWord=scepticism
prevWord=availability
nextWord=Besides
nextWord=Ligier
entrances
paved
prevWord=expectations
outdid
prevWord=Cowan
nextWord=Internazionale
nextWord=response
nextWord=big-screen
saline
prevWord=5:17
prevWord=Huddersfield
prevWord=Wagner
Interest
nextWord=1948-52
praised
nextWord=p.m.
prevWord=Astafei
prevWord=simply
prevWord=warrants
prevWord=Hungary
prevWord=romantically
trove
nextWord=fellow
praises
nextWord=BLACKBURN
nextWord=Rennae
nextWord=abdomen
expects
prevWord=redeemed
prevWord=fronts
prevWord=Junior
prevWord=simple
nextWord=hedged
nextWord=conduct
nextWord=revenge
prevWord=crazy
prevWord=header
nextWord=uncompromising
1:04.541
nextWord=Florentine
prevWord=trains
restitution
prevWord=Monterrey
TITLE
nextWord=1997-98
prevWord=terrain
prevWord=130.2
100=1990
nextWord=harassing
100=1992
prevWord=1-82
problem
6-242
nextWord=consolidating
prevWord=performs
nextWord=Fredi
prevWord=incentives
nextWord=Nikolaus
nextWord=ORDERS
Retired
nextWord=block
nextWord=bagged
nextWord=consolidation
nextWord=Israelis
nextWord=Spa-Francorchamps
prevWord=1-96
sexual
1,456.7
prevWord=Dharmasena
prevWord=Suite
0.966
prevWord=eurokiwi
nextWord=BUGNO
prevWord=+90-212-275
slotted
0.958
prevWord=WEEKS
prevWord=Bagwell
prevWord=spying
6-273
nextWord=margins
prevWord=oilfields
nextWord=perspective
reveal
prevWord=45.810
229-1
ambushed
nextWord=derailed
prevWord=retiring
nextWord=armfuls
nextWord=reconciliation
blow
3/1/90
prevWord=Moenchengladbach
Operating
prevWord=nationality
bloc
ending
prevWord=fantasy
Nuclear
prevWord=covering
nextWord=oportunity
visitor
nextWord=4:20.341
prevWord=custodial
low-copper
prevWord=Kingdom
nextWord=U.S.-bound
prevWord=Chester
prevWord=diagnosed
nextWord=AGENCY
lineup
nextWord=75,000
nextWord=6,828,000
prevWord=demand
nextWord=RIFFE
prevWord=thieves
nextWord=Ruggiero
prevWord=impeachment
considers
prevWord=TEXAS
allowing
nextWord=ex-dividend
challenge
prevWord=liability
nextWord=Glafcos
plagued
17.05
prevWord=inspections
anchored
prevWord=Essex
prevWord=regulations
prevWord=volumetric
remote
prevWord=Chinese
prevWord=pullouts
begins
nextWord=disagreement
contributions
sister
nextWord=overcapacity
prevWord=Bissell
prevWord=cameras
prevWord=Bosia-Hercegovina
dedication
nextWord=4:05.00
prevWord=streets
nextWord=Waqar
nextWord=removing
derivatives@reuters.com
prevWord=nonetheless
arrives
nextWord=trucked
arrived
nextWord=undergo
prevWord=pitched
nextWord=never
nextWord=supply
licensed
prevWord=necklace
prevWord=hanging
prevWord=pitcher
prevWord=pitches
prevWord=emotion
prevWord=sealed
nextWord=decentralisation
licenses
blue
nextWord=27,000
nextWord=Severin
speaks
prevWord=Vasilopoulos
prevWord=Rosenborg
0.4-0-9-0
nextWord=Constructorul
prevWord=Swardt
prevWord=slashed
6-440
nextWord=downplayed
prevWord=spilling
Unless
prevWord=Looming
Gains
nextWord=Wolverhampton
prevWord=suitcases
prevWord=10,925
prevWord=KOREAN
About
nextWord=dreaded
sobering
revise
prevWord=carriers
nextWord=three-man
medium
nextWord=Avonex
remove
recycled
liaison
prevWord=8-120
nextWord=impetus
prevWord=Conroy
nextWord=+168,130
prevWord=satisfy
prevWord=020-504-5040
nextWord=health-care
prevWord=textbooks
42.45
nextWord=71.8
nextWord=bailiff
prevWord=Lille
prevWord=crying
revive
race-long
prevWord=Gastel
prevWord=10no
prevWord=ceremony
prevWord=tractors
nextWord=proof
integration
prevWord=wedge
meetings
prevWord=1230
prevWord=time-trial
nextWord=storming
vacancy
blackmail
prevWord=mission
prevWord=frustrating
prevWord=three-engine
prevWord=Hamas
prevWord=diplomatic
prevWord=assisted-suicide
prevWord=1241
Books
prevWord=Rules
prevWord=Syria
violence
prevWord=red-haired
three-month-to-three-year
prevWord=nightmare
prevWord=voluntarily
nextWord=7,845
nextWord=Dnevi
prevWord=Veracruz
spinal
nextWord=smoke
nextWord=Several
22,666.80
nextWord=1)266
190,000
42.00
prevWord=powered
nextWord=susceptible
nextWord=naira
descendant
penetrating
prevWord=autobiography
nextWord=003
nextWord=proud
nextWord=000
prevWord=GRONINGEN
judgment
prevWord=takings
prevWord=surprised
nextWord=tuscan
prevWord=125M
1/9/95
prevWord=1260
suspend
nextWord=mountains
terror
prevWord=P1020
prevWord=persisted
nextWord=suffering
prevWord=surprises
nextWord=Vietnam
strengthened
indiscriminate
prevWord=missing
prevWord=sheets
17.50
prevWord=Watson
17.29
initiated
nextWord=0.8
nextWord=0.6
nextWord=0.7
nextWord=0.4
nextWord=0.5
prevWord=Gdansk
nextWord=0.2
prevWord=Wimbledon
nextWord=0.3
nextWord=Oksana
nextWord=0.1
nextWord=session
prevWord=living
prevWord=productivity
Through
prevWord=Sabatini
nextWord=0-6
1:50.980
nextWord=0-1
nextWord=0-2
prevWord=missile
nextWord=0-0
nextWord=prove
nextWord=4:05.64
nextWord=amid
prevWord=outlook
proponents
fantastic
nextWord=CheckFree
prevWord=conventional
interested
triumphant
prevWord=Morocco
nextWord=consultation
prevWord=normality
waivers
prevWord=balance
nextWord=sack
nextWord=relegated
well-rehearsed
prevWord=521-8
nextWord=LOSS
prevWord=weakened
prevWord=Yekaterinburg
nextWord=Skeid
nextWord=68-76F
4:13.353
prevWord=SOCCER
prevWord=relate
prevWord=Snyman
recognize
prevWord=WELLINGTON
nextWord=driving
echoing
nextWord=MS-NBC
inning
nextWord=downward
prevWord=places
nextWord=elected
prevWord=2.777
prevWord=13-0
81-3
prevWord=13-8
prevWord=13-9
prevWord=placed
prevWord=rioted
marine
575,000
nextWord=Bally
STAKES
impeachment
nextWord=HCFA
escape
latest
prevWord=13.0
prevWord=worsening
receive
prevWord=replying
surplus
prevWord=BERLIN
prevWord=13.8
nextWord=Gabi
prevWord=13.4
prevWord=13.6
100.92
prevWord=Nice
81-7
prevWord=LIMERICK
nextWord=7149
2.7975
prevWord=coordination
prevWord=hunt
placing
prevWord=bread
prevWord=break
81.5
marathon
prevWord=Barnsley
insufficient
nextWord=seventh
nextWord=safe
prevWord=2.2-0-13-0
nextWord=Gail
playing
nextWord=wallets
nextWord=Aaron
prevWord=document
refining
prevWord=120,500
prevWord=northerners
nextWord=prone
extrusion
overcame
prevWord=diet
prevWord=Rush
prevWord=dies
nextWord=object
148.29
prevWord=died
nextWord=toting
prevWord=Dahlman
nextWord=PERIOD
95975
prevWord=Wilander
76-year-old
teargas
prevWord=CHARLESTON
prevWord=24,137,000
launchers
prevWord=liaising
identified
nextWord=sake
prevWord=importance
options
nextWord=1:46.09
prevWord=Ruci
freight-tonne
3,907.5
prevWord=bodyguard
nextWord=normalisation
prevWord=11,244
prevWord=Rudd
nextWord=scandals
nextWord=hover
prevWord=732.50
nextWord=probe
66-14
nextWord=1ama
nextWord=Gala
nextWord=November
questioning
tabs
nextChunkTag=B-PP
nextWord=Showers
nextWord=Filip
prevWord=Inienger
nextWord=sail
prevWord=re-nomination
nextWord=FULL-YR
nextWord=Pesalai
nextWord=Galo
nextWord=boundary
nextWord=Gale
prevWord=overshadowed
8167
nextWord=averted
touching
nextWord=momentum
prevWord=romantic
prevWord=wiped
nextWord=machinegun
Quite
prevWord=Stolle
nextWord=1:46.18
nextWord=fortunate
prevWord=pro-life
nextWord=Montpelier
prevWord=surprisingly
prevWord=resolve
funds
nextWord=uneasiness
consider
nextWord=detective
nextWord=versus
markings
archive
nextWord=prince
nextWord=Gorleben
6mth
prevWord=couple
prevWord=huge
nextWord=sank
prevWord=Bochum
nextWord=servants
nextWord=Younes
prevWord=10,896
prevWord=50th-minute
nextWord=sucked
nextWord=beverage
nextWord=unspecified
requirements
nextWord=Cyprus-based
encounter
prevWord=trends
prevWord=newspapers
RESULT
prevWord=PLAYERS
nextWord=arrange
prevWord=zinc
safer
Product
prevWord=investement
nextWord=Stefan
nextWord=165
prevWord=Gates
prevWord=BELL
prevWord=according
nextWord=161
nextWord=14p
rally
prevWord=Setubal
nextWord=exit
loyal
prevWord=yield
nextWord=158
nextWord=159
prevWord=POINT
prevWord=Dondo
nextWord=153
nextWord=Hans-Otto
nextWord=151
cancellation
prevWord=U.S.-mediated
prevWord=Lawrie
nextWord=HARD
negotiated
nextWord=unworthy
nextWord=dressing-room
nextWord=148
prevWord=failing
nextWord=146
nextWord=144
nextWord=141
nextWord=employment
nextWord=142
involvement
nextWord=140
nextWord=wreckage
521.15
nextWord=one-kg
negotiates
prevWord=Shaba
nextWord=entertain
prevWord=Zizkov
prevWord=allegedly
committing
31,347
prevWord=Crawford
tells
nextWord=130
appeals
prevWord=bullish
prevWord=impassable
prevWord=Parrots
prevWord=Casablanca
nextWord=dystrophin
prevWord=Atalanta
hovercrafts
prevWord=Thunderstorms
branding
prevWord=projections
tale
prevWord=brokered
nextWord=declarations
nextWord=detecting
talk
prevWord=dirt
tall
landmark
prevWord=brothers
nextWord=Tokyo
nextWord=3-186
nextWord=respirator
14-pct
prevWord=louder
take
taka
nextWord=190
undecided
nextWord=agrregate
nextWord=HAVE
prevWord=Pierce
prevWord=Flavin
blanks
nextWord=Soren
nextWord=prolific
prevWord=wartorn
standings
nextWord=submissions
nextWord=detection
nextWord=187
nextWord=188
nextWord=Eleven
nextWord=185
nextWord=182
nextWord=180
nextWord=celebration
nextWord=pylons
tank
prevWord=Spaniards
nextWord=tankan
nextWord=Klas
prevWord=negotiations
nextWord=Mozambique
prevWord=bullion
nextWord=Eefje
nextWord=174
nextWord=173
prevWord=repositioning
prevWord=Acre
injection
nextWord=newly
nextWord=1.9
nextWord=1.7
nextWord=1.8
prevWord=vitriol
nextWord=observed
nextWord=1.5
nextWord=assailant
nextWord=1.6
nextWord=1.3
nextWord=1.4
shedding
nextWord=1.1
nextWord=1.2
nextWord=1.0
nextWord=.628
prevWord=Elsewhere
nextWord=.626
nextWord=.627
nextWord=.623
nextWord=reprinted
stadium
prevWord=hurl
prevWord=Esposito
prevWord=empower
out-of-court
nextWord=1-6
nextWord=1-7
prevWord=Ruud
nextWord=1-4
nextWord=1-2
nextWord=1-1
protest
prevWord=Srbska
nextWord=3-146
prevWord=Hands
prevWord=TAIBE
culprit
nextWord=.633
cancelled
nextWord=.632
nextWord=725,900
nextWord=.630
prevWord=Cadete
prevWord=county
prevWord=fundamentals
prevWord=touches
conquered
prevWord=FIGURES
prevWord=Nothstein
nextWord=.606
nextWord=.604
nextWord=.602
nextWord=assignments
member
prevWord=1360
elimination
prevWord=packet
nextWord=3-166
nextWord=two-week
nextWord=3-160
nextWord=jokes
allege
nextWord=3-167
prospect
prevWord=weeks
prevWord=touched
nextWord=Piacenza
Authorities
prevWord=three-stroke
nextWord=.610
nextWord=batter
nextWord=129
eliminating
prevWord=Ivano-Frankivsk
nextWord=127
nextWord=3-116
prevWord=BEIRUT
serve
nextWord=124
nextWord=122
sugarcane
prevWord=11th
nextWord=120
prevWord=1381
protestors
nextWord=118
nextWord=119
prevWord=Quetta
nextWord=115
seriously
nextWord=113
nextWord=110
prevWord=packed
prevWord=2.693
task
convenient
nextWord=7000
226.859
nextWord=unable
prevWord=Ning
nextWord=70.9
------------------------
appears
nextWord=101
nextWord=102
9,306,000
prevWord=Couples
nextWord=CTRY
cementing
prevWord=Continued
leadership
nextWord=rentals
ranked
nextWord=responding
prevWord=BILLIONS
nextWord=1/9
overturned
nextWord=1/2
nextWord=1/3
nextWord=unbeaten
prevWord=Sussex
nextWord=adoring
villa
nextWord=dashing
prevWord=carburettor
prevWord=Haarhuis
nextWord=Telekom
82-0
prevWord=14-6
prevWord=14-7
nextWord=adulthood
prevWord=14-9
extra-judicial
outfit
nextWord=fibres
nextWord=Springfield
nextWord=ACCOUNT
prevWord=expressions
prevWord=14.0
nextWord=STRONG
prevWord=14.2
nextWord=adding
82.3
taxi
prevWord=lingers
prevWord=14.8
prevWord=Share
prevWord=14.4
nextWord=nevus
prevWord=14.5
prevWord=38:32.149
nextWord=messages
prevWord=claimed
nextWord=Kingston
prevWord=precedence
Ecological
prevWord=369.66
prevWord=infrastructure
villagers
processing
briefed
37-page
two-headed
nextWord=broader
prevWord=Sheehan
shipyard
prevWord=Nigeria
nextWord=3-1/2
prevWord=trip-Canada
nextWord=Gazeta
nextWord=Royce
nextWord=deposits
prevWord=surprise
witchdoctor
prevWord=soundly
prevWord=dropping
prevWord=demonstrations
bribes
prevWord=JYVASKYLA
nextWord=sentries
prevWord=stowed
nextWord=Alessandro
prevWord=1415
prevWord=nursing
prevWord=infect
nextWord=forming
nextWord=Jennifer
mainly
secretaries
leaves
provincial
apologised
celebrate
232-km
nextWord=damaging
nextWord=Enrique
coconut
mountainous
prevWord=shipped
prevWord=expand
Deprival
swept
nextWord=systematically
prevWord=MOROCCAN
nextWord=amount
nextWord=Khmer
prevWord=1445
summary
madness
prevWord=progress
nextWord=SLOVAK
prevWord=Kitur
nextWord=705M
nextWord=1,750-hectare
nextWord=post-closing
nextWord=thrashed
nextWord=LISTING
nextWord=accepting
nextWord=splitting
prevWord=illicit
prevWord=limped
nextWord=scouts
negotiator
3,941.50
prevWord=half-percentage
prevWord=UNION
nextWord=CUBA
dependent
prevWord=FRCD
briefly
prevWord=column
prevWord=bills
nextWord=HOUSE
nextWord=Stefka
prevWord=941-8100
nextWord=whisk
prevWord=480,618
patrolled
prevWord=splits
nextWord=tanker
prevWord=brain-wasting
prevWord=augment
establishes
established
nextWord=REQUEST
prevWord=downloaded
nextWord=6700.000
prevWord=accusation
prevWord=9251-274757
prevWord=FREQ
80th
nextWord=white
hovered
prevWord=Cloete
prevWord=deformed
nextWord=hurled
nextWord=sun-drenched
nextWord=Chandigarh
prevWord=distribute
publicity
91.05
prevWord=taken
nextWord=Steffi
prevWord=Israel-PLO
nextWord=penultimate
prevWord=takes
one-half
factions
prevWord=disciplinary
66.60
prevWord=5.2893
publicist
prevWord=pulpit
91.37
91.36
arrival
prevWord=RECORDER
nextWord=rain-affected
arch-rivals
91.33
66.74
66.72
nextWord=spirits
misappropriating
prevWord=3-0-17-0
prevWord=Iacomella
prevWord=head-butting
nextWord=Paribas
nextWord=showing
resources
nextWord=CUBS
expensive
prevWord=Telfer
cemented
prevWord=369.00
Social-Democratic
prevWord=Boland
nextWord=8,049
nextWord=Tomas
nextWord=march
accuracy
nextWord=286
prevWord=rickety
nextWord=282
nextWord=Janette
nextWord=season-high
nextWord=281
nextWord=observe
prevWord=indecency
prevWord=abiding
nextWord=JOINT
prevWord=desireable
prevWord=weapons
prevWord=10,725
nextWord=279
nextWord=277
nextWord=278
prevWord=wide-ranging
nextWord=273
nextWord=274
prevWord=negotiators
topple
prevWord=similar
nextWord=discipline
prevWord=Schreuder
nextWord=266
nextWord=267
nextWord=264
posted
blamed
nextWord=infringement
nextWord=263
nextWord=260
prevWord=Guayana
counternarcotics
prevWord=long-time
nextWord=sympathy
prevWord=parrots
prevWord=PREDICTION
nextWord=yielded
Evolution
prevWord=sadmasochistic
departments
nextWord=much-postponed
saint
nextWord=Graef
nextWord=257
nextWord=258
nextWord=255
nextWord=1ST
nextWord=251
swine
prevWord=cables
nextWord=252
swing
nextWord=250
nextWord=25-
nextWord=revisions
tourists
prevWord=spectacular
blames
nextWord=8,000
nextWord=indecency
nextWord=Suedwest
nextWord=considerable
moved
nextWord=Grade
nextWord=achieving
swift
health-care
prevWord=acreage
nextWord=51,000
nextWord=Grace
benevolent
prevWord=visitor
nextWord=considerably
prevWord=Extradition
nextWord=1=35.73
nextWord=arguing
prevWord=355,900
prevWord=Horvath
trust
prevWord=Miscellaneous
prevent
irresponsible
nextWord=Werner
prevWord=profitable
nextWord=297
nextWord=295
truth
nextWord=291
moves
prevWord=arise
prevWord=Irwin
prevWord=10-2
prevWord=10-3
prevWord=10-4
prevWord=10-5
movie
nextWord=208
nextWord=Hawthorn
nextWord=209
prevWord=10-0
nextWord=206
prevWord=10-1
nextWord=207
nextWord=205
nextWord=203
prevWord=10-7
prevWord=10-8
prevWord=tracks
nextWord=.508
nextWord=.504
nextWord=Ingrid
decline
nextWord=.500
prevWord=OLYMPIAKOS
prevWord=PRESCOTT
prevWord=10.3
prevWord=10.5
nextWord=2/9
prevWord=10.6
prevWord=10.0
nextWord=2/3
swiss
prevWord=spleens
prevWord=10.8
prevWord=10.9
prevWord=Cartagena
nextWord=.519
nextWord=.516
prevWord=nation
nextWord=.515
nextWord=.512
nextWord=.511
nextWord=EgyptAir
1:50.727
nextWord=Fears
nextWord=2.9
nextWord=2.6
minorities
nextWord=2.7
prevWord=designate
nextWord=2.4
nextWord=2.5
nextWord=2.2
nextWord=2.3
nextWord=2.0
nextWord=2.1
nextWord=suffers
prevWord=Celsius
15-month
prevWord=Laasonen
prevWord=shrink
prevWord=shrine
sacred
nextWord=undergone
tender
prevWord=1006
prevWord=effectively
nextWord=2-7
nextWord=certificates
nextWord=2-5
nextWord=searching
prevWord=BBB+
prevWord=1003
prevWord=SALES
prevWord=BOGOTA
boat
nextWord=CSKA
inauguration
Lock
nextWord=38,915.87
prevWord=dipped
prevWord=100M
nextWord=gendarmerie
prevWord=pushing
prevWord=Krajina
serve-and-volley
nextWord=Banat
prevWord=3.385
nextWord=long-barreled
nextWord=248
nextWord=246
body
nextWord=244
nextWord=245
nextWord=242
nextWord=.549
nextWord=Cetes
bottle-throwing
TRIBUTE
nextWord=.547
nextWord=.545
nextWord=Darryn
nextWord=.543
prevWord=1021
nextWord=.542
nextWord=.540
nextWord=just-concluded
prevWord=Dickson
conducted
prevWord=restrictions
breathes
nextWord=230
nextWord=drinking
nextWord=.552
nextWord=.551
Opener
assaulting
susceptibility
prevWord=Banisadr
interfering
nextWord=228
nextWord=229
nextWord=226
nextWord=stretchered
nextWord=20s
nextWord=earnings
nextWord=225
lamented
nextWord=222
favour
nextWord=220
nextWord=221
nextWord=Torrance
nextWord=.527
prevWord=intending
nextWord=.528
138.0-149.0
nextWord=.526
nextWord=.523
nextWord=.524
nextWord=.522
scoreless
nextWord=.520
abroad
guilt
wielding
nextWord=Dunnes
nextWord=218
83.0
disposing
prevWord=locomotive
nextWord=211
nextWord=210
prevWord=WINNER
nextWord=one-kilometre
nextWord=20M
nextWord=.538
nextWord=.539
Researchers
nextWord=.536
nextWord=Lumir
nextWord=.537
nextWord=.534
nextWord=squeeze
nextWord=.535
nextWord=.532
nextWord=competitiveness
organizers
nextWord=.533
nextWord=Banco
nextWord=.530
nextWord=.531
accurate
prevWord=wines
nextWord=virtually
co-driver
nextWord=Ernie
chiefs
prevWord=trader
nextWord=.589
prevWord=trades
protein
prevWord=Monthly
nextWord=143.60
prevWord=digital
shelters
margin
mount
prevWord=3.334
prevWord=13-10
prevWord=13-11
prevWord=banners
nextWord=Ashia
prevWord=13-15
285,000
nextWord=.598
nextWord=alerted
nextWord=.594
nextWord=.595
nextWord=.592
nextWord=fervant
cocked
prevWord=plugged
prevWord=Chitauro
413.20
nextWord=.569
nextWord=Denis
nextWord=.568
nextWord=.565
prevWord=Korean
nextWord=.564
nextWord=.561
kids
substances
1,315.7
nextWord=hardly
suppress
prevWord=sewing
APARTHEID
kick
prevWord=pleased
nextWord=.578
nextWord=.576
prevWord=ACTUAL
nextWord=.574
prevWord=PARTING
nextWord=.575
nextWord=.573
nextWord=.571
nextWord=Ronaldo
nextWord=well-organised
nextWord=Banja
officer
nextWord=harden
offices
nextWord=harder
nextWord=carved
bomb
imprisoned
prevWord=directors
mouse
ours
prevWord=licensing
prevWord=overnight
prevWord=replay
travelling
nextWord=Tommi
protege
mourn
truce
prevWord=11-2
nextWord=depart
prevWord=11-4
prevWord=Indore
prevWord=temperature
book
truck
prevWord=11-9
nextWord=intending
prevWord=breezy
prevWord=11-7
prevWord=11-8
outs
nextWord=Saskatchewan
shortfall
nextWord=Change
illiquid
prevWord=11.3
prevWord=Frowick
prevWord=winds
prevWord=11.0
bone
prevWord=11.7
bond
11,900-12,100
mouth
oust
prevWord=continuing
nextWord=estate
prevWord=recapitalisation
nextWord=videotape
prevWord=windy
81st
prevWord=Akram
offical
experimental
prevWord=46.538
nextWord=4:21.009
nextWord=Karpaty
prevWord=Bouterse
prevWord=upgrading
truly
prevWord=273-5
prevWord=rationales
downtown
prevWord=11,000
prevWord=manufacture
nextWord=compulsory
damage
boss
nextWord=anxieties
pattern
labour
prevWord=ratio
kilo
nextWord=specific
1:51.075
protect
nextWord=defying
nextWord=masterminds
born
potentates
prevWord=election
kill
conductor
bore
nextWord=Finns
prevWord=Implats
prevWord=Pierog
nextWord=naked
prevWord=273.6
hyper-inflation
prevWord=eyewitnesses
prevWord=vital
prevWord=recess
prevWord=4:11.114
prevWord=---------------------
prevWord=Vancouver-based
213,845
Lows
nextWord=Nicholas
3,905.7
king
timing
kind
nextWord=Wasim
prevWord=REPUBLIC
nextWord=PROVS
nextWord=Cagliari
nextWord=CTBT
prevWord=STERLING
nextWord=influence
both
prevWord=designs
prevWord=Korean-related
prevWord=Canaries
nextWord=over-allotment
affection
nextWord=bulge
nextWord=Brad
prevWord=10,655
nextWord=HAND
nextWord=freeze
affecting
prevWord=Jalalabad
nextWord=stretch
understands
nextWord=presidency
nextWord=shrinks
nextWord=lagging
accompanying
prevWord=SUGO
maimed
nextWord=Eleonora
nextWord=51/96
prevWord=flying
prevWord=ENGLAND
prevWord=32,700-32,800
prevWord=10,663
spread
prevWord=emphasised
nextWord=Denny
nextWord=Zevenaar
prevWord=update
big-screen
prevWord=unity
heroics
prevWord=anyone
prevWord=integrated
prevWord=1997--Ruehe
prevWord=Assembly
boys
prevWord=delayed
fluid
nextWord=bettered
prevWord=units
prevWord=suggests
nextWord=home-made
prevWord=BRAWL
nextWord=even
prevWord=Wilhelmina
7-1/3
prevWord=Uppsala
nextWord=ever
prevWord=FOUR
personal
nextWord=compiling
nextWord=398
nextWord=396
prevWord=Charlton
nextWord=395
nextWord=megawatt
nextWord=390
nextWord=391
nextWord=single-digits
switched
applause
nextWord=Wisconsin
nextWord=revival
prevWord=CONTRACT
nextWord=III.ker.TVE
prevWord=syndicated
prevWord=objective
7-100
prevWord=Likud
prevWord=write
nextWord=388
prevWord=twist
prevWord=Afghanistan
nextWord=385
nextWord=383
smoothly
tenor
prevWord=coupon
Above-normal
7-1/8
nextWord=Over
prevWord=wrist
prevWord=8-284
fastest
prevWord=families
procedure
nextWord=1st
nextWord=376
nextWord=377
prevWord=Masters
nextWord=374
nextWord=371
prevWord=seaside
fighter
nextWord=inflamation
prevWord=electing
nextChunkTag=I-LST
downtrend
bowling
prevWord=INDORE
nextWord=112th-ranked
shipping
prevWord=mail
prevWord=Belarus
nextWord=Start
nextWord=boycotted
nextWord=writes
typically
nextWord=tournaments
francs
nextWord=evil
nextWord=Zemun
prevWord=Asmara
prevWord=recreated
nextWord=1yr
1:51.287
prevWord=Stefanovic
prevWord=producers
nextWord=electronics
south-west
nextWord=30-year
prevWord=Quentin
prevWord=reappointment
prevWord=semi-final
prevWord=experience
nextWord=Texaco
parade
nextWord=sound-track
prevWord=preserved
prevWord=aiming
unfair
over
ballot
prevWord=polluters
football
prevWord=Atlas
DOPING
prevWord=8-238
avoid
nextWord=unaudited
prevWord=SURE
nextWord=329
nextWord=325
600,000
nextWord=320
prevWord=Corp.
nextWord=32-
nextWord=Boulder
striking
prevWord=objection
nextWord=Asian
nextWord=1nb
1:50.858
reduce
nextWord=318
nextWord=60-day
nextWord=312
nextWord=1mo
nextWord=30M
prevWord=poise
practitioners
nextWord=within
nextWord=309
prevWord=221.857
nextWord=307
prevWord=illusion
Prayers
weekend
prevWord=lunches
nextWord=Almere
nextWord=304
nextWord=301
nextWord=302
soymeal
nextWord=2ND
immigrant
prevWord=profited
prevWord=sworn
prevWord=travelled
nextWord=riverways
prevWord=Corps
table
nextWord=Bosnia
nextWord=3/8
nextWord=3/9
nextWord=3/4
spinoff
prevWord=undertaking
prevWord=Cibola
prevWord=8-2/3
improvements
nextWord=366
nextWord=363
nextWord=362
nextWord=unfruitful
nextWord=.429
nextWord=.426
nextWord=.427
nextWord=35M
nextWord=.424
nextWord=.425
nextWord=.423
Qualifier
nextWord=.421
nextWord=negotiations
nextWord=359
prevWord=Emon
nextWord=356
nextWord=357
prevWord=constructing
nextWord=355
nextWord=350
nextWord=351
nextWord=.439
nextWord=.435
nextWord=.436
nextWord=.434
nextWord=206-386-4848
nextWord=.431
prevWord=union
nextWord=.432
nextWord=rejected
tense
nextWord=.430
prevWord=addressing
nextWord=345
nextWord=344
tents
nextWord=halfback
nextWord=FIRST-ROUND
nextWord=.408
nextWord=.409
prevWord=Akron
nextWord=340
nextWord=.406
prevWord=Zeleznik
nextWord=.407
prevWord=AMSTETTEN
nextWord=.405
nextWord=.402
prevWord=10TH
prevWord=construction
nextWord=.403
84.5
nextWord=Schulz
prevWord=accompagnied
prevWord=familiar
nextWord=committees
nextWord=criminal
nextWord=338
20.318
prevWord=deliberately
nextWord=339
nextWord=Fairview
prevWord=Cowdenbeath
nextWord=334
moult
prevWord=Wada
nextWord=.413
nextWord=chain
nextWord=.411
prevWord=Petkovsek
2.17M
nextWord=.470
prevWord=RATES
840M
boatload
nextWord=flourish
prevWord=maul
prevWord=consumers
nextWord=49,900
geography
life-sustaining
nextWord=.468
nextWord=.469
prevWord=Endt
nextWord=derives
nextWord=.466
nextWord=.467
nextWord=.465
nextWord=.462
nextWord=.463
nextWord=.460
nextWord=.461
prevWord=consistent
nextWord=.481
nextWord=conclude
nextWord=pinch-hits
82nd
nextWord=lawyer
pos=-X-
SHARPSHOOTER
nextWord=.477
nextWord=7.03
nextWord=.478
invoked
prevWord=Quesada
nextWord=.473
nextWord=.474
nextWord=.471
prevWord=anti-Mafia
prevWord=sawn-off
prevWord=Grasshoppers
prevWord=Berensztain
nextWord=.446
gloom
nextWord=.447
nextWord=Zenit
nextWord=.444
copper
prevWord=50-year-old
213,989
nextWord=.443
nextWord=locked
prevWord=artist
nextWord=.459
nextWord=consumers
nextWord=.457
prevWord=longer-term
nextWord=02/09
depths
nextWord=.455
nextWord=explosives
nextWord=.456
nextWord=.453
nextWord=.454
nextWord=.451
nextWord=.450
nextWord=3.9
dissent
prevWord=12-1
nextWord=3.7
nextWord=3.8
prevWord=12-3
nextWord=3.5
nextWord=discussed
prevWord=feedmillers
nextWord=3.3
nextWord=3.4
nextWord=3.1
prevWord=12-8
nextWord=3.2
express
prevWord=3120264
prevWord=Corse
prevWord=undone
prevWord=12-6
prevWord=Zealander
prevWord=Lubiani
prevWord=12-7
nextWord=7.50
prevWord=hundreds
instantly
nextWord=neglected
prevWord=plenty
nextWord=7.56
nextWord=geared
prevWord=12.2
prevWord=sword
prevWord=12.3
prevWord=swore
nextWord=3-7
nextWord=3-4
July-August
nextWord=3-3
prevWord=12.9
re-examine
prevWord=12.5
prevWord=Dolly
prevWord=TREATY
pro-war
prevWord=point
nextWord=.492
nextWord=Brenden
rebuffed
prevWord=CARLSBAD
nextWord=7.35
turnover
figure
prevWord=1200
passports
prevWord=Consultations
prevWord=uphold
prevWord=swoop
provisionally
nextWord=secretaries
nextWord=7.25
nextWord=7.23
nextWord=.496
streets
nextWord=roaring
prevWord=l'Homme
nextWord=Arkadiusz
nextWord=hesitancy
prevWord=investigations
prevWord=pavilion
psychiatrists
children
Isolated
review
nextWord=rapists
prevWord=6.0-percent
prevWord=Carlisle
nextWord=pesticides
guide
prevWord=incitement
prevWord=male
nextWord=sucessful
prevWord=O'Sullivan
prevWord=full-year
nextWord=7.84
nextWord=warehouses
leaflets
prevWord=appoints
nextWord=programme
prevWord=haunted
prevWord=pornographic
point-by-point
range
prevWord=INDEPENDENT
prevWord=18-man
nextWord=Cairo
prevWord=Another
nextWord=7.65
elements
nextWord=Bahamas
nextWord=secretariat
nextWord=SIDHU
prevWord=KLADNO
nextWord=Fiona
prevWord=Medvedev
nextWord=Divisional
prevWord=10,756
nextWord=first-team
prevWord=38:32.353
nextWord=PHILLIES
growing
nextWord=HEALED
steel-producing
prevWord=revisions
prevWord=GDANSK
nextWord=10-year-old
prevWord=Strydom
suspending
nextWord=jolts
nextWord=51.80
prevWord=JAYASURIYA
prevWord=Wash
wraps
nextWord=Tonga
prevWord=erratic
prevWord=10,760
nextWord=Glenallen
ranks
nextWord=637.50
vomitoxin
flung
nextWord=Tongo
over-the-counter
prevWord=turnabout
31,139
prevWord=Wath
prevWord=mass
prevWord=remaining
nextWord=Slough
prevWord=Halle
topped
prevWord=paying
nextWord=Inzamam-ul-Haq
prevWord=Saboteurs
technically
prevWord=mark
prevWord=34,277
prevWord=tip-off
nextWord=51.71
prevWord=interruption
nextWord=conditions
1996-05-28
prevWord=Valentine
nextWord=BLACK
nextWord=recognize
prevWord=turned
prevWord=Belmondo
nextWord=foul
prevWord=Lejeune
nextWord=Iraq-bound
nextWord=shunt
tax-exempt
nextWord=drive-through
investment
prevWord=batches
prevWord=everyone
prevWord=31,834,000
nextWord=37-year-old
clamped
7-220
nextWord=refining
nextWord=2,558.84
nextWord=2,583.49
nextWord=fluctuations
nextWord=210-5
nextWord=customs-cleared
prevWord=Arendt
nextWord=THREAT
prevWord=beautiful
prevWord=one-two
ordered
prevWord=conflicts
nextWord=Dream
prevWord=hospital
violating
prevWord=unnamed
prevWord=city
exciting
nextWord=involve
obvious
nextWord=form
prevWord=Leonardo
prevWord=members
nextWord=partnership
nextWord=refiner
infuriated
nextWord=responsible
nextWord=limits
prevWord=shoot-out
nextWord=FORMULA
prevWord=Pradesh
predicted
prevWord=earlier
nextWord=vintage
2.240
fruit-throwing
abated
disguised
owed
nextWord=Fenerbahce
nextWord=refined
grueling
prevWord=WEST
nextWord=centrist
nextWord=isolated
422.1
7-263
prevWord=cheers
prevWord=rebuilding
nextWord=indicate
projection
6700.000
nextWord=Double
prevWord=cheese
campaigning
prevWord=Liverpool
68-76F
nextWord=months
prevWord=Weighted
PLAYERS
nextWord=obsession
prevWord=restore
prevWord=poor
nextWord=batteries
prevWord=9,500
prevWord=laureate
prevWord=lifestyle
hospitalised
doldrum
promotional
nextWord=reluctantly
nextWord=karbovanets
prevWord=panes
prevWord=Arnhem
prevWord=Milk
prevWord=panel
prevWord=9-15
prevWord=Ponting
nextWord=forecasters
prevWord=auctioned
prevWord=9-10
prevWord=pool
nextWord=161,600
nextWord=academics
prevWord=recommendation
prevWord=10-1-50-1
mandatory
nextWord=disbelief
Equivalents
nextWord=housing
prevWord=Storm
Major-General
orderly
prevWord=porn
prevWord=sites
prevWord=pork
prevWord=Zorc
prevWord=Stork
prevWord=125.3
prevWord=CLEARED
85.0
nextWord=41-5/16
prevWord=Underwriters
prevWord=recycled
prevWord=Cervera
ascending
prevWord=Minn
prevWord=surplus
prevWord=BRAZILIAN
prevWord=penultimate
prevWord=SEEDS
prevWord=71.70
prevWord=Maruyama
nextWord=Melanie
nextWord=Tirana
prevWord=guys
prevWord=homosexual
owns
prevWord=pots
disapproved
prevWord=port
including
includind
prevWord=29-6-64-1
nextWord=ponytail
74,600
prevWord=Dowd
violation
prevWord=secrets
prevWord=37,000
prevWord=resurgent
nextWord=downtrodden
prevWord=renew
prevWord=Down
prevWord=12,940
prevWord=grenades
prevWord=10,880,000
1,452-km
nextWord=foreigners
prevWord=Kipkosgei
prevWord=Ratlam
8520
prevWord=adopt
nextWord=MALEEVA
prevWord=lifespan
prevWord=choke
prevWord=prisons
STANDINGS
prevWord=interogation
prevWord=233,713
kneeing
prevWord=Illingworth
prevWord=Opthalmic
prevWord=Goalkeepers
manhunt
prevWord=22.94
prevWord=22.95
probable
prevWord=exhaustion
prevWord=Ciller
prevWord=Marathon
VMIG
grand-daughter
prevWord=anchor
BILLIONS
probably
penniless
nextWord=08/27/96
attack
nextWord=strains
cutout
prevWord=abilities
nextWord=fours
team
nextWord=cost-effective
teak
prevWord=efficiency
prevWord=Villefranche
forfeited
prevWord=refining
nextWord=prefer
prevWord=5/1/98-02
nextWord=formerly
FLOURISH
83rd
paramilitary
prevWord=Estudiantes
prevWord=Lofton
franked
nextWord=ripped
prevWord=22.66
registering
TRUTH
nextWord=liquor
prevWord=suspend
prevWord=engineer
U.S.-bound
prevWord=22.68
8569
prevWord=Thirteen
prevWord=Standings
nextWord=goods
prevWord=22.53
nextWord=irregular
prevWord=replied
75,000
prevWord=22.58
prevWord=lasted
thumbs
prevWord=22.84
prevWord=22.85
scientist
prevWord=46.11
prevWord=60,960
nextWord=4,570
prevWord=teams
nextWord=STANDARD
prevWord=46.16
prevWord=foolish
replying
limelight
prevWord=22.72
prevWord=22.73
prevWord=29/8/96
prevWord=22.77
prevWord=incapacity
prevWord=Hissou
teen
nextWord=excerpts
prevWord=46.21
ostensibly
nextWord=prefix
prevWord=d'Italia
prevWord=percentile
nextWord=guaranteed
RACE
prevWord=95/96
prevWord=9.12
prevWord=RELAY
prevWord=diverse
1.875
prevWord=snack
prevWord=teach
prevWord=Chaouch
nextWord=excessive
nextWord=straits
prevWord=Cairns
prevWord=accelerate
2.209
prevWord=Project
prevWord=Brugge
prevWord=sources
prevWord=actions
prevWord=drains
nextWord=currrent
prevWord=Croatians
nextWord=Belem
welded
HISTORIC
prevWord=22.42
nextWord=beheaded
prevWord=REQUEST
172.7
prevWord=Chateaubriand
10.57:33
celebrates
nextWord=Belga
prevWord=disagreement
prevWord=19,734.70
prevWord=lurking
adversary
prevWord=first-half
nextWord=understand
prevWord=penfriend
prevWord=SBF-120
nextWord=detailed
prevWord=Gabrich
nextWord=Douati
tell
prevWord=heating
prevWord=snags
prevWord=abnout
coverable
celebrated
slashed
nextWord=resolving
nextWord=SPEECH
prevWord=steel-producing
partnered
prevWord=neighbours
prevWord=CUSIP
prevWord=+230.4
49,900
Protestant
erratically
RAIN
nextWord=Worcestershire
tens
prevWord=Oujda
nextWord=tribunal
prevWord=22.00
boards
nextWord=however
elsewhere
nextWord=alive
nextWord=nervousness
nextWord=cycle
diamond
nextWord=CHAMPIONSHIPS
nextWord=top-ranked
nextWord=gradual
prevWord=hard-won
nextWord=4,500
quarter-finals
prevWord=111.50
prevWord=whoops
prevWord=abductors
nextWord=Chiapas
prevWord=communicate
1,897.85
nextWord=Immaculate
prevWord=Hizbollah
areas
three-month
nextWord=grammes
nextWord=W.N.F.
Otherwise
nextWord=negotiators
prevWord=Grichina
examining
announcement
nextWord=swallow
nextWord=REASONS
nextWord=nine-year-old
prevWord=Woodforde
prevWord=Khadga
nextWord=state-owned
prevWord=separated
Here
MOTOR
bookable
prevWord=7-2-24-1
prevWord=tribe
prevWord=payout
pinch-hits
nextWord=Viacom
term
prevWord=expanding
nextWord=cannabis
coxless
prevWord=loose
posters
possible
prevWord=Martens
prevWord=damaged
under
prevWord=trial
spotlight
prevWord=difference
prevWord=races
nextWord=Sarajevo
divisions
prevWord=deployment
nextWord=Julen
prevWord=Berwick
prevWord=Outlook
possibly
prevWord=subway
prevWord=Dietsch
test
enforcement
nextWord=online
prevWord=motorcycles
nextWord=ex-world
prevWord=breach
petrol
unconfirmed
nextWord=tensions
bred
nextWord=115.1
training
prevWord=9,600
prevWord=descendant
prevWord=Elephant
nextWord=inaugurated
prevWord=surveillance
prevWord=presently
nextWord=Julie
prevWord=tried
nextWord=Julia
priest
prevWord=servicemen
prosecutors
nextWord=importing
prevWord=innocent
schedule
prevWord=tries
prevWord=Denmark
prevWord=raced
prevWord=eight-month-old
prevWord=infant
nextWord=censure
newsletter
prevWord=38:30.140
prevWord=Cooper
prevWord=Albion
prevWord=exaggerated
prevWord=normalisation
workplaces
prevWord=Seychellois
text
nextWord=recommendations
nextWord=closure
prevWord=Haessler
nextWord=Aryeh
disillusioned
prevWord=9.33
razor-thin
prevWord=2,342.75
government
prevWord=NEUCHATEL
prevWord=Graudin
inflamation
nextWord=12-year
breakout
prevWord=9.50
nextWord=Chua
nextWord=fashion
nextWord=39.0
prevWord=Torino
nursing
nextWord=39.2
bumped
nextWord=disagreed
prevWord=municipality
nextWord=39.7
prevWord=cricketers
opposes
nextWord=Benjamin
prevWord=casualty
prevWord=proceedings
nextWord=learned
prevWord=71-57
prevWord=9.68
nextWord=hurdler
nextWord=hurdles
prevWord=50.574
prevWord=Bathel
nextWord=bloodshed
nextWord=Aryan
nextWord=matchup
prevWord=gathering
prevWord=breaks
nextWord=Ihlas
nonetheless
prevWord=9.76
prevWord=9.77
nextWord=sued
+0,2
veterans
prevWord=Proceeds
DAY--COMPANY----PERIOD--CONSENSUS----RANGE-------PVS
nextWord=45.67
prevWord=9.82
prevWord=session
prevWord=presented
prevWord=lawsuit
half-time
prevWord=9.85
7-3/8
X-ray
prevWord=murder
opposed
prevWord=circumstances
prevWord=9.93
prevWord=conclusively
nextWord=320.00
prevWord=Chabora
+0.0
prevWord=summary
nextWord=pessimistic
+0.7
prevWord=presenter
+0.1
+0.2
prevWord=individuals
inform
nextWord=21.75
prevWord=centers
nextWord=unchanged
prevWord=Darcy
drawing
nextWord=45.48
interpretations
prevWord=Shaxson
prevWord=Speak
prevWord=shipments
prevWord=2,342.00
nextWord=69.00
nextWord=DKBA
nextWord=premium
prevWord=Through
half-volley
nextWord=suit
unique
nextWord=overshadowed
nextWord=consultant
nextWord=45.21
postponement
examine
industry
Accountant
nextWord=charging
nextWord=15-foot
prevWord=Arabia
nextWord=publisher
prevWord=Arabic
workers
prevWord=Stottlemyre
prevWord=Wilkinson
6,512,000
nextWord=45.34
84th
nextWord=Mayfiar
nextWord=writings
nextWord=whereas
controlled
nextWord=Things
increasing
nextWord=45.38
prevWord=lead
prevWord=points
nextWord=lender
nextWord=45.00
rapid
seven
1:56.286
hinterland
darker
nextWord=foil
nextWord=59440
nextWord=45.05
prevWord=BOLSWESSANEN
prevWord=shedding
nextWord=45.08
re-enacting
dropping
murderer
complaints
Senator
prevWord=middle-aged
prevWord=Jeffrey
prevWord=Turnover
nextWord=1-10-100
nextWord=level
prevWord=9/16
disrupt
nextWord=Nepalese
murdered
prevWord=TIMES
nextWord=21.25
nextWord=45.15
nextWord=nearby
prevWord=square
recording
nextWord=3.5486
prevWord=gene-therapy
nextWord=stock-trade
STAYED
nextWord=Proceeds
prevWord=emptied
prevWord=squash
winning
prevWord=reaction
prevWord=build-to-order
prevWord=stepped
raped
prevWord=overseeing
prevWord=steppes
nextWord=4,464
prevWord=legislature
prevWord=looms
nextWord=Guus
7-283
nextWord=three-hitter
TABLE
prevWord=Pohang
prevWord=Eales
prevWord=Overall
nextWord=Julio
preliminary
prevWord=2-0-14-0
prevWord=rents
prevWord=Commons
prevWord=556.19
nextWord=sure
prevWord=Airdrieonians
nextWord=GOOCH
nextWord=right-hand
lingers
prevWord=looks
architect
First-place
nextWord=end-year
nextWord=rebels-Interfax
nextWord=devastating
15.710
ex-president
explosions
prevWord=verified
bullish
nextWord=portrait
391-seat
nextWord=primarily
prevWord=ranking
prevWord=Haringa
prevWord=denotes
prevWord=McGinley
nextWord=Pole
regulations
prevWord=4-334
nextWord=ALEXANDROUPOLIS
nextWord=21.08
insult
prevWord=prediction
decibels
nextWord=novitiate
prevWord=Taxable
nextWord=tramples
nextWord=Port
prevWord=Viljoen
prevWord=mistake
nextWord=trampled
nextWord=Dimas
prevWord=predicting
+91-22-265
Joining
prevWord=cigarette
nextWord=those
prevWord=STAKES
prevWord=FEATURE
REPRICING
prevWord=tipped
nextWord=matched
tickets
nextWord=Khartoum
prevWord=MONTPELIER
nextWord=foot
prevWord=introduction
prevWord=Speaking
prevWord=trawlers
nextWord=MEES
instead
attacking
nextWord=shedding
nextWord=reaction
bullion
prevWord=begging
projections
nextWord=counsels
prevWord=cross-border
52.17
27.40
agrees
prevWord=Hines
prevWord=Abbey
prevWord=arising
restructuring
prevWord=prospector
nextWord=delinquency
spleens
290,000
27.53
27.50
prevWord=Spain
prevWord=consciences
prevWord=Hindu
resignation
nextWord=Jumet
censors
prevWord=Heavy
swimming
27.22
good-natured
27.25
prevWord=allocation
agreed
nextWord=baby
unfriendly
Winger
143.60
prevWord=defused
prevWord=laid
nextWord=glancing
nextWord=compartment
nextWord=ransacks
notes
nextWord=Lake
official
police-run
52.53
nextWord=lashed
prevWord=qualify
nextWord=parking
prevWord=massively
prevWord=referee
nextWord=Alliance-Menatep
prevWord=Abbas
prevWord=squads
nextWord=Margret
often
tests
nextWord=daughter
prevWord=0.100
nextWord=Bahrain
warmed-over
nextWord=Beijing
prevWord=shortages
nextWord=baht
prevWord=Wishart
prevWord=premiership
nextWord=restrictions
prevWord=investors
complained
nextWord=responsibility
prevWord=land
prevWord=lane
52.75
fellow-American
prevWord=Berlusconi
prevWord=13,102
nextWord=bags
offending
second-half
nextWord=continent
nextWord=70-75
nextWord=mothers
prevWord=lamb
nextWord=recommend
nextWord=ex-president
quadrangular
noted
prevWord=Switzerland
horizon
prevWord=Owen-Jones
undertaking
nextWord=Dutchman
prevWord=Choudhury
progressive
prevWord=clothes
prevWord=HISSOU
wanting
prevWord=Viking
prevWord=Faber
nextWord=Marcelo
prevWord=campaign
nextWord=bang
brave
87.5
splitting
prevWord=FACILITIES
ecological
prevWord=post-mortem
prevWord=Siemiatkowski
nextWord=Erekat
prevWord=vacation
prevWord=Vaas
prevWord=warriors
nextWord=08/29/1996
nextWord=SEATTLE
prevWord=airport
brawl
nextWord=peacefully
Privatising
singer
429,449
prevWord=defectors
nextWord=ball
shaggy
rights
nextWord=Davidson
administer
nextWord=meningitis
prevWord=motorists
prevWord=ACES
prevWord=census
nextWord=knife-wielding
prevWord=Jadida
nextWord=movements
nextWord=HOUSTON
BARLEY
8716
prevWord=MEXICAN
nextWord=obtaining
prevWord=emphasise
declares
prevWord=15,704.3
prevWord=0172
nextWord=Last
ancestors
prevWord=NINE
+1.9
soundly
nextWord=Valdo
prevWord=Bakker
+1.5
nextWord=Lars
+1.0
prevWord=lack
+1.2
nextWord=45-46
prevWord=Bobic
nextWord=Iberia
prevWord=warlord
fastest-growing
prevWord=32.0-43.0
prevWord=safeguarded
prevWord=call-up
prevWord=matching
nextWord=FINALS
prevWord=relay
prevWord=consent
23-year-old
nextWord=essential
republics
declared
prevWord=127.3
nextWord=unsuccessful
rates
progressing
nextWord=stay
nextWord=45-50
rated
prevWord=blazing
prevWord=infringement
27.70
MATCHES
nextWord=AGGRESSIVE
nextWord=stab
prevWord=passer-by
long-term
prevWord=Cauet
nextWord=o'clock
prevWord=125cc
skills
AVERAGES
prevWord=ticket
nextWord=Heidrun
prevWord=Guldimann
remorse
nextWord=Ernest
nextWord=extra-judicial
85th
prevWord=censor
prevWord=laws
nextWord=stripping
nextWord=enclosure
2,901.48
prevWord=Rapeseed
prevWord=chat
prevWord=yelled
nextWord=38.0
nextWord=38.1
nextWord=showcased
prevWord=dulls
prevWord=Depending
